,0,1,2,3,4,5,6,7,8,9,10,11,12,13,14,15,16,17,18,19,20,21,22,23,24,25,26,27,28,29,30,31,32,33,34,35,36,37,38,39,40,41,42,43,44,45,46,47,48,49,50,51,52,53,54,55,56,57,58,59,60,61,62,63,64,65,66,67,68,69,70,71,72,73,74,75,76,77,78,79,80,81,82,83,84,85,86,87,88,89,90,91,92,93,94,95,96,97,98,99
the,-0.2719546,0.29078332,0.2405774,0.04704544,-0.2307322,-0.1943261,-0.42323172,0.1425902,-0.23549937,-0.30904776,-0.42451346,-0.39428386,0.49345288,0.37665388,-0.22922593,0.28206536,-0.0828222,0.14936553,-0.08106662,0.1308596,0.018329121,0.023608351,-0.5282188,0.6638558,0.14858758,0.22979571,-0.47427967,-0.05523696,-0.49835488,0.31182465,-0.061170246,0.23076959,-0.27979758,0.11017558,-0.07527753,-0.22477083,0.14969747,0.5385315,0.2555211,0.16144966,-0.10231934,-0.07929486,0.14343643,0.4423553,-0.12954491,0.18797334,-0.071889296,-0.08491256,0.16650155,-0.24251926,0.28396222,-0.37738442,0.030624235,-0.050670594,0.23804168,0.1328746,0.55251664,-0.2476858,0.11993281,0.024653869,0.19411518,0.29177198,-0.08740844,0.2004977,-0.01356917,0.33283755,-0.29961336,-0.11890093,-0.4220509,0.33988142,-0.16549417,-0.30574566,0.48844898,0.13356087,0.24534942,0.19937308,-0.22695188,0.05227242,0.073501304,-0.15422463,-0.1356015,0.20228891,-0.17193468,-0.25357616,-0.058722228,0.18486755,-0.029387653,-0.37932888,-0.0028179414,0.5349951,-0.35192862,0.4070517,0.116139084,0.015271632,0.4668974,-0.23252116,-0.17838363,0.21834055,0.34213653,0.024333036
and,-0.25659332,-0.041404504,-0.51790226,-0.11778439,0.269545,0.08554616,0.14582635,0.023271007,0.23451667,0.08691564,-0.35146788,0.28525865,0.029045591,-0.10659414,0.0117698135,0.1740863,-0.21322954,-0.58529,-0.2987588,0.105375096,0.43789348,-0.2262306,0.20195962,0.0016338524,0.1076743,0.41247794,-0.77413315,0.11154837,-0.32577503,0.20324968,-0.28686956,-0.36666635,-0.6262882,0.19367312,0.11510543,0.24676853,0.1153517,-0.24224843,-0.23909485,0.14502394,0.27634072,-0.30971134,0.31632054,0.03764022,-0.22380477,-0.074728206,-0.23167136,0.2402762,0.34398726,-0.3028431,0.3122308,-0.5481788,-0.20998265,-0.35071608,0.07556647,0.7288181,0.3016905,0.101545975,-0.3114175,0.15827894,0.33894044,-0.06929823,-0.60222155,-0.19479834,-0.10529766,0.2462473,-0.35610166,-0.050242715,-0.30142388,-0.33517426,-0.16026157,-0.7822214,0.54220116,0.21660729,0.10420045,-0.018920192,0.25216722,-0.6830075,0.87430614,0.11419182,0.37769252,0.27305916,-0.2757701,0.5569136,0.04841699,0.3373528,-0.22704601,0.2158177,-0.2125089,-0.3288784,-0.022629224,-0.25015125,-0.2274714,-0.16907153,0.1859365,-0.5855946,-0.058709826,0.3424387,-0.5754848,0.10464762
is,0.14377117,0.32216856,-0.33272797,-0.21917693,-0.11224637,-0.11743007,-0.034820747,-0.09527718,-0.75119805,0.21643563,-0.38248104,0.042418238,-0.05902792,0.48074076,0.24782363,0.17603835,-0.33959955,-0.022283958,-0.34151393,0.33981586,0.11598783,0.09876018,-0.33380064,0.130645,0.10498094,0.069470316,-0.48060736,0.15609205,-0.3941717,-0.57174987,-0.31948733,0.23647119,-0.38399705,0.35122567,-0.6450451,0.055143088,0.31650943,0.3397371,0.17113137,0.31011438,-0.31668776,0.10798952,-0.4031124,0.2184401,-0.123142764,-0.1266773,0.07988433,0.23376803,0.7869183,-0.7960279,0.046687577,0.17280796,0.089655474,-0.3976974,-0.0051749875,0.14158471,0.7791577,-0.28155413,-0.15656151,0.09491579,-0.44949985,-0.3184276,-0.5506412,0.4189123,-0.17489685,0.10787436,-0.18412481,-0.37331387,-0.21094328,0.35700834,-0.17428745,-0.09629403,-0.1640061,0.4782042,0.22226803,-0.31375787,0.36343578,-0.073912986,0.1591629,-0.13482583,-0.23077813,0.4253086,0.08535593,-0.086623065,0.26323313,0.3823987,0.06846278,0.1822086,-0.025473671,0.47519815,-0.4190621,0.28988338,0.13922423,-0.7872716,0.091302805,0.06448381,0.69692236,0.14045557,-0.35042846,-0.39390743
of,-0.099828415,-0.05028881,0.24852842,0.034712996,-0.56649965,0.13126062,-0.18537766,-0.067231104,-0.36931366,0.19821596,0.08352613,0.397103,-0.015149846,0.085018635,-0.11904921,0.101358935,-0.041421164,-0.34302992,-0.3806218,0.4961325,0.2105906,-0.25560832,-0.24561822,0.96967626,0.10980704,-0.52307653,-0.3482639,-0.4618324,-0.24489936,0.49469113,-0.5290622,-0.5367855,0.17677972,0.44523025,-0.0009312157,-0.011584308,0.18142313,0.3303953,-0.3362594,-0.0058227875,-0.32998958,0.21465257,0.87805235,0.17377798,0.0069123297,-0.017230665,0.14131232,0.295979,0.18968315,0.106944665,0.18164633,-0.42870396,-0.033466317,-0.2650818,0.5170172,0.19849327,-0.6569048,0.36257938,-0.41620982,0.35289317,0.20766684,-0.059869066,-0.4903725,0.107639715,0.48617068,0.08261568,-0.030638348,0.05948996,-0.48978606,0.65432674,-0.7654042,-0.2518399,-0.020717755,-0.2874151,-0.10654284,0.042982765,0.4701905,0.23890455,-0.24008693,0.038863435,-0.47514495,0.009547845,0.5277488,0.052588623,-0.42028663,0.3497303,-0.19504571,-0.092220254,0.30218142,-0.40980873,-1.0571965,0.07352209,-0.1898584,-0.37233362,0.5124019,0.69276905,0.22483501,0.0360812,-0.11992562,0.15856467
to,0.3610621,0.53661114,0.0663516,0.531147,0.124878444,0.26179278,0.17603111,-0.25215793,0.47117296,-0.53498286,-0.7359333,0.23251209,0.272511,0.07138783,0.24093339,0.25267315,0.19362041,-0.5259063,-0.06613069,-0.0147400275,0.48723763,0.090224214,0.28513288,0.0064576943,0.20766063,-0.5207489,-0.8192462,0.46573195,-0.6554784,0.21569093,-0.39016274,-0.2466487,0.5545749,0.47139424,-0.22471064,-0.43490726,0.15793043,0.7498111,-0.0958884,0.21750431,0.196373,-0.37645513,0.023079528,-0.42689514,0.06274368,0.049227875,-0.05023568,0.1194095,0.346469,-0.096589394,0.25025678,-0.25178736,-0.24516645,-0.23647052,0.24214801,-0.04673067,-0.52372956,0.09411264,0.29794204,0.57743496,-0.0338923,-0.42327157,-0.18785565,-0.039790355,0.2366274,0.20698425,-0.049510997,-0.3616495,-0.2639698,0.19886777,-0.031072814,-0.59706885,-0.3478998,-0.12669931,0.11055026,-0.19287279,0.16519056,-0.15988612,0.061690222,0.09315272,-0.23883928,0.18424463,0.15195188,0.60029453,0.0644119,0.26509437,0.86666495,-0.10467167,-0.3279067,0.46545234,-0.1850854,0.39189103,0.08878947,0.33161536,-0.06063224,-0.17078725,-0.9158407,-0.003943829,0.54296285,-0.12485368
it,-0.059930045,-0.21897648,0.32980376,0.5169804,-0.16797881,0.2144737,0.07545498,0.37717384,0.7466809,-0.3642363,0.017784737,0.38900256,0.12079233,0.29796833,0.69241416,-0.90510565,-0.22730714,-0.32718793,-0.02941438,-0.40421706,0.507204,0.11932053,-0.013646195,0.66577697,0.28618288,0.14296326,-0.52386117,-0.086428486,0.26629078,0.29717672,-0.031896487,0.011942304,0.16157697,-0.23969132,0.10174276,0.36450127,-0.10681577,-0.22116032,0.22676626,-0.4634664,0.28221738,0.45671883,0.21532848,-0.05084406,0.54834473,-0.19255191,0.07228207,-0.4639257,-0.019394057,-0.33221328,0.09335308,-0.44659647,0.1731957,-0.1026043,-0.041031796,0.1971904,0.31687883,-0.056090523,0.020321583,0.7666118,0.55781084,-0.6450357,-0.6401422,-0.17793024,0.65274525,0.17785718,-0.08173809,-0.6679427,-0.2741514,0.098837815,-0.4034047,0.31187418,-0.22393817,-0.6859339,-0.26989305,-0.2415661,0.3569501,-0.6506621,0.16106261,-0.011700174,-0.6098179,0.36166918,-0.20879863,-0.008591018,-0.515877,-0.1645566,-0.3715956,-0.14793138,0.16929516,0.727952,-0.06027341,0.53758246,-0.17595969,-0.6532181,0.19641867,-0.4165517,-0.32617444,0.25580198,0.32325286,-0.0403444
br,0.3323973,0.6416768,0.10058062,0.11955748,0.0022527163,-0.08851973,0.40077683,-0.38477403,-0.080789186,0.27883852,-0.15761045,-0.12894055,-0.1532283,0.30963573,0.7979958,-0.13452064,-0.4172971,0.13490151,-0.3607363,0.07673393,-0.121043,0.09715526,-0.008011016,-0.06906881,0.17622139,0.030304303,0.01798386,0.016268546,0.06526951,-0.18291587,0.28730023,0.050077576,-0.05812246,0.24032281,0.70124143,-0.1000537,-0.12704454,-0.3593931,-0.5014101,0.45092854,0.064931184,-0.3008361,-0.25005364,-0.042493045,0.12911113,-0.073409446,0.0015631934,0.09722707,0.12461287,0.15522836,0.5858175,-0.06735289,-0.12376882,0.38125432,0.0061925836,0.16146532,0.11724219,-0.25325504,-0.20743766,0.10966389,0.053496655,0.08594805,0.17980815,-0.19008294,-0.10766094,0.42364037,0.24069126,-0.14424746,-0.14143962,-0.010542891,0.10972282,-0.22144628,-0.20647351,-0.20897248,0.3348626,0.2624366,0.2312393,-0.22047769,0.27779323,-0.29899287,-0.73454803,-0.19960019,-0.02856531,-0.23590994,0.30183405,-0.2048747,-0.2801005,-0.128061,0.21923296,-0.3549637,-0.5849349,0.43376988,0.21645413,-0.2942496,-0.1793232,-0.091279075,0.15390894,0.50111157,-0.1388544,-0.15664887
in,-0.5258035,0.16435198,0.08056745,-0.1504218,-0.3965332,0.5625444,-0.4356029,0.5514015,0.008127742,0.2865781,0.46443194,-0.022510558,0.6257183,-0.048252296,0.21133116,0.67913103,-0.29553014,-0.35790974,-0.56471074,-0.49168313,-0.39773664,0.7488496,0.16496217,0.3368968,0.56539893,-0.050869294,-0.3979086,-0.36004207,-0.2680102,-0.22879884,-0.55483705,-0.23556784,0.04954041,0.4212225,-0.05112448,-0.2047589,0.54139215,-0.025413116,0.23976748,-0.061329074,0.7358742,-0.14223047,0.21152173,-0.04963445,-0.20403874,-0.63402444,0.25748488,0.7588871,0.50145596,-0.10788803,0.020914327,-0.2988914,-0.20289873,0.49374947,0.65787476,0.46320167,0.5712923,0.36980984,-0.07480258,0.2417455,-0.6267466,0.38019675,-0.25321454,0.3991915,-0.36598888,0.20771654,0.21000773,-0.9819114,-0.012842625,-0.019109355,-0.19459172,-0.18794748,-0.45170054,-0.25972348,0.19757825,0.13300413,0.61195326,-0.32340714,-0.2651512,0.67727154,-0.3019195,0.104845546,-0.9023143,0.48493737,-0.29369718,-0.20172074,-0.5153654,-0.35048342,-0.19856219,0.14996156,-0.34576446,-0.007896216,-0.37841716,0.2730742,0.2794007,0.1081138,-0.23725031,0.068180986,-0.02615071,-0.09480083
with,0.6896692,-0.015114721,0.0839995,0.4940599,-0.17489305,0.5695171,-0.012583365,-0.046183135,-0.14571482,0.17197224,-0.63508385,0.26381874,0.96664906,0.1687628,0.40382665,0.15059249,0.080754615,-0.70871085,0.1594257,0.09480111,-0.07208518,-0.06649937,0.15747613,0.57314545,-0.09489791,-0.1149873,-0.010281595,0.038893275,0.28214267,-0.5958515,-0.16834776,-0.4207953,-0.5703232,-0.3392287,-0.096123345,-0.074098386,0.020227214,-0.20235293,-0.20469388,0.48845777,0.5096936,0.13832812,0.03263806,-0.68584245,-0.5117849,-1.1069672,-0.94786555,0.42582497,0.45044768,0.2026086,0.20784935,-0.24314848,0.6325481,-0.23066592,-0.06911134,0.04539203,-0.27175462,-0.2944928,-0.027348468,0.22459237,0.34069046,0.8950902,-0.57369643,-0.34700128,0.1827302,-0.202698,-0.48058468,0.19662237,-0.22696845,-0.18937393,-0.44215152,-0.059419025,-0.3342334,-0.8033728,0.062369417,0.115521714,-0.082988344,0.4537378,0.08930242,-0.27490345,-0.10788553,0.36020884,-0.6267609,-0.00950211,0.5199153,0.14741178,-0.08830995,-0.25011966,-0.54309195,0.28396624,-0.45972878,-0.054876655,0.5151281,-0.39945275,0.5992677,-0.5147357,0.19397442,0.07946558,0.19561525,-0.19182774
this,-0.5039329,-0.20682625,0.24994534,0.27735725,0.43240967,0.035282657,-0.31897837,-0.44682425,-0.057549518,-0.17504497,-1.3830562,0.27337113,0.16169427,0.26380527,0.53964496,-0.058873713,0.4559598,0.24490303,-0.37446114,-0.044101913,-0.0013789961,0.023345185,-0.2962156,0.16957146,-0.20245497,0.45521253,-0.08551348,0.012274459,-0.22560145,0.080555655,0.06762183,0.32502136,0.020528702,0.14657642,-0.18677573,0.3781239,0.10978914,-0.2660645,0.39614573,0.0030673167,-0.13168155,-0.3004255,0.29740143,-0.176969,-0.46560535,0.2620629,0.63717514,0.351343,0.6832272,0.18681613,-0.0070941886,-0.7898894,0.027663348,-0.4678277,0.9251368,0.9137289,-0.1061823,0.7653084,0.009793567,0.0073580598,-0.8385699,0.16891503,-0.48529184,-0.041878503,0.7186686,-0.0053805476,-0.02501176,-0.14627874,-0.12683474,0.26508108,-0.3608591,-0.64205396,-0.22646183,-0.40547302,-0.48270455,-0.39978588,0.16527522,0.06441048,-0.5079676,-0.63429934,-0.006719716,0.19646673,0.069316596,0.5617317,0.5607027,-0.2239058,-0.47831792,-0.5193804,0.62952167,0.043266207,0.23350708,0.39183632,-0.4980297,-0.6275758,0.92250717,-0.42502007,0.15111229,-0.39280123,0.5199888,-0.21983843
film,-0.5774401,0.25649923,0.49738583,0.5286568,-0.025764259,0.29911035,-0.2082873,0.046424724,-0.4093336,0.021405868,-0.60196227,0.17306423,0.18968996,0.11670743,0.09375894,0.04009744,0.28981838,0.0009008619,0.26190642,-0.52536553,0.076531544,-0.12144531,-0.3630201,0.5782963,0.07127546,0.008332449,-0.9716158,0.07057938,0.24161638,-0.21791406,-0.034247864,0.057892635,0.58315116,-0.53321415,-0.3989867,0.45217276,0.4571742,0.27317643,0.05652388,0.03265825,0.15280402,0.40515402,0.38063452,0.054314833,0.40627414,0.10410198,-0.6023822,0.20111723,0.39059025,-0.09659794,-0.07552841,-0.32141775,-0.27312568,0.22850533,0.20484889,0.816258,0.29002154,0.10475869,0.30617633,0.26323354,0.31327754,0.7675652,-0.9046629,-0.120127924,0.14947021,0.09546525,0.20467374,-0.33776748,-0.27804372,-0.11079497,-0.14172216,-0.4789902,0.49235505,-0.012777704,0.25340974,-0.32686853,-0.21425565,-0.5712171,-0.031468567,0.17005457,0.00038141522,0.16858625,0.56286323,0.14529687,-0.39096254,0.7826827,0.69368607,-0.25987503,0.6562156,-0.3920724,0.11649889,0.03764957,-0.046563927,-0.30849063,-0.2944522,-0.1559482,0.13052037,0.19108222,0.14100905,-0.297263
every,-0.09510866,0.20829995,0.5566201,0.18800934,0.23622416,0.12507538,0.3499307,1.0241376,0.08527091,-0.8991282,-0.73604906,-0.197317,-0.24960132,0.24331918,-0.8830115,-0.30549532,0.6762309,0.02016146,-0.003824369,0.045644324,-0.27002713,0.023630362,-0.23779263,-0.12040441,0.5865381,0.028841192,-0.09275237,-0.32135183,0.05866167,-0.1236425,-0.796463,0.09321437,0.010959382,0.3356539,-0.16304347,-0.58702326,-0.21192127,-0.47073844,0.5796295,0.0801039,0.86437273,-0.4936511,0.41948718,-0.059866115,-0.3504245,-0.0025610575,-0.33202934,0.7994832,0.581895,0.06917792,0.22164054,-0.64231133,0.36655873,0.45607376,-0.6233202,0.60645413,-0.23228967,0.30168396,-0.18736361,0.88125235,-0.3848355,-0.37615088,0.17458479,0.5293874,-0.0029668408,-0.4940145,0.012984899,-0.44451314,-0.30698007,-0.24723731,-0.5025218,-0.06465055,0.32302284,-0.71570116,-0.031643532,-0.27200773,-0.18663959,-0.40012336,0.29358402,-0.9708299,-0.59196883,0.39320284,0.41808653,0.2269107,0.10147943,0.13981885,-0.45697874,-0.13047051,-0.04438763,0.49110234,-0.35786653,0.46384913,-0.40381238,0.18936272,-0.32983318,0.18632284,0.034038182,0.008038534,-0.42474502,-0.22217397
from,0.078479044,0.34387672,-0.4295648,0.1475887,0.43777302,0.6570331,-0.10111826,0.3198455,-0.23479939,0.13576056,-0.31248167,0.105448835,0.37743422,0.30839905,-0.36028698,-0.3797443,-0.18917432,-0.8035945,0.17486238,-0.026527867,-0.0014812219,-0.56058174,0.22795863,0.9557991,-0.26824299,0.34118155,-0.5818357,0.37024906,-0.42610484,-0.32837582,0.12974599,0.078661084,0.35888156,0.062143557,0.41006777,-0.36075738,-0.5609314,0.44341987,-0.38856,-0.88781166,0.14573963,0.15999046,0.37301627,-0.6579048,-0.20142393,0.30303207,0.16776538,0.16360797,0.63958806,0.3476759,-0.03380188,-0.42332435,-0.11524147,0.06182491,0.30606094,0.4326085,-0.18554015,-0.491401,-0.3819086,0.40922922,0.081788614,0.40327227,0.15977143,0.22337481,-0.2585779,0.46534792,-0.8354813,-0.52952677,-0.12473805,-0.18974885,-0.099872164,-0.33338213,0.081331775,0.19313218,-0.10143258,-0.41042683,0.058602,-0.36803073,-0.48360637,-0.35144445,-0.46126986,-0.26935464,0.45111194,0.29576862,0.2786197,0.11204105,0.37873757,-0.054163773,-0.21025626,0.86448336,-0.08797984,0.22737075,-0.6486225,-0.48326945,0.2601371,-0.043151654,-0.081542164,0.35996127,0.38519695,-0.64299685
are,-0.168865,-0.8054235,-0.28260717,0.16384895,0.017935295,0.64356494,-0.2107709,0.14791116,0.36054096,0.5334304,-0.46122777,0.8729353,0.6181793,0.2517741,0.08329387,-0.33696595,-0.011581518,0.43072766,0.3919329,-0.42705953,-0.067164846,-0.309539,-0.13070934,0.8579029,0.1596584,0.01595177,-0.74500227,-0.40810433,-0.067055404,0.15720634,-0.19234842,0.47939596,0.2005834,0.26448637,0.052203313,0.22232121,0.5485584,-0.3113072,-0.030658592,0.28346732,0.0551359,-0.4321583,0.2041538,0.24777056,-0.15772185,-0.43461317,-0.060014516,0.3970544,0.7079519,0.14252263,-0.026981486,-0.54507446,-0.14655128,-0.02172029,-0.38478196,-0.118082486,-0.7875577,-0.24804054,0.17136852,-0.8073063,0.3076674,0.23338458,0.13942116,-0.3522981,0.06583703,0.17173232,0.16239482,-0.19657657,-0.24912997,0.3496679,-0.3097567,-0.0022270707,-0.26264608,0.20806034,0.4388285,0.017503886,0.45029792,-0.21321528,0.29997313,-0.020785686,0.2542514,0.26819545,0.5484559,0.44148394,0.11148332,-0.45529193,0.6235203,-0.15095499,0.32813698,0.19500561,-0.52493024,0.5745737,0.26680914,0.34904677,0.11876867,-0.2235136,0.21140565,0.6235082,0.12398101,-0.49439093
that,0.23274693,0.4341331,0.54299504,0.53095096,-1.2403339,0.45999628,-0.06654874,-0.104423486,-0.23129077,-0.0303985,-0.2800143,0.279226,-0.09561719,-0.2830729,-0.16740763,0.7060837,0.15118372,-0.019642444,0.8133216,-0.89913094,0.63469374,0.6599957,0.17153347,0.2688406,-0.46103188,0.5085017,0.044576395,-0.21639706,-0.03134128,0.70816135,-0.17928185,0.080748715,-0.42404222,0.24930793,-0.5665342,-0.6306607,-0.04121308,-0.85602206,-0.20640208,-0.04222775,0.82064515,-0.45950103,0.08506488,0.2706888,-0.5766999,0.6257644,-0.012893357,0.094883196,0.46685582,-1.0249708,0.093240015,-0.9355999,-0.025711115,-0.43109244,-0.035184443,-0.18174005,0.06316002,-0.043790694,0.025235768,0.09510798,0.46308553,0.6973167,-0.6063292,0.11332359,0.5428867,-0.16868855,-0.21163958,-0.27029908,0.011385732,-0.25392127,0.23374954,-0.5673415,-0.40850243,-0.7061789,0.5487767,-0.24196222,-0.14224023,0.15140903,-0.109356254,-0.08847105,-0.33978865,-0.10899083,-0.38568553,-0.21896483,-0.70941776,0.59722626,0.07291537,-0.6938572,0.06349801,0.27619925,-0.047974356,0.22150537,-0.6637497,-0.55034244,-0.12412333,-0.1579404,0.14924666,0.6033164,0.19336918,-0.19792575
not,0.9721526,-0.5133877,0.32522067,-0.4019017,0.62215686,0.04522419,0.21805789,-0.20024247,0.2897077,0.71061134,-0.7363351,-0.06892705,0.07921389,0.8205352,-0.08937771,0.19151162,0.7563069,-0.18993619,-0.17355876,0.5530683,0.7128198,-0.43156433,-0.29240146,0.40192932,0.15364882,-0.38540316,-0.09299359,0.008113527,-0.6490549,-0.08135502,-0.38222277,-0.2221267,0.16359708,0.12700678,0.11259399,-0.3573303,-0.14172553,-0.61790204,0.25727683,-0.20748326,0.42340633,-0.115855604,-0.10747862,0.59780663,0.367561,0.32303733,-0.18525161,0.3206445,0.085757874,-0.1328431,-0.52853286,-0.3955034,-0.0033532858,-0.28187263,-0.21924092,-0.2502726,-0.2997815,0.37204686,0.025816336,0.3484576,0.36724862,0.6739038,-0.61061555,-0.054452926,-0.31078258,0.14434491,0.26810476,-0.97678167,-0.24891296,0.24800035,-0.34521085,-0.46945003,0.3434512,-0.1501658,0.033019334,0.16624533,0.3808694,-0.16075937,-0.46395662,-0.34982887,-0.08102449,0.07842447,-0.6498004,0.11625404,-0.047519833,-0.21590959,0.005644355,0.22666973,0.07438743,-0.17853989,-0.68282723,0.50556666,-0.21142015,-0.76007444,0.16697693,-0.6350264,-0.56559736,0.3163446,0.19177112,-0.12804498
no,-0.8292349,0.61986995,0.24647586,0.34198567,0.16730992,-0.21464,-0.25134262,0.035402432,-0.39847174,0.028608054,-0.457713,0.9307184,-0.2669631,0.4902389,0.36834246,-0.70178026,0.43807268,-0.97147816,-0.7075503,-0.15354368,0.41175863,-0.7168428,0.08345349,0.58173794,0.7945216,-0.20120421,0.28737873,-0.2206554,0.15197304,-0.3554867,0.14719026,0.35105175,0.14285028,-0.19042793,-0.14795622,0.0017695271,-0.37085786,-0.27616468,-0.29837653,0.16793917,1.1520787,0.1082799,-0.16715044,0.33642268,-1.1926929,-0.28586173,0.21299267,0.89166605,0.49169505,-0.04300108,-0.19216457,-0.5371909,-0.69407576,-0.4017828,-0.28077874,-0.4687059,0.13220172,0.106643975,0.40974316,-0.020332009,0.26634827,0.117111675,-0.09195262,0.29817528,-0.28598332,0.20131342,-0.09549375,-0.22510053,-0.60736674,0.60748965,0.14720808,0.14213988,-0.43451348,0.050048158,-0.056800947,0.4300724,0.3882404,0.39572173,0.7147024,-0.22299509,0.30404797,-0.45654842,-0.017284535,0.44138536,-0.022424506,0.57582295,0.2762843,-0.0095669115,-0.5731338,-0.14335847,-0.47875556,0.8384348,0.35285097,-0.48434016,-0.17735265,0.15672491,0.058304578,-0.4569451,0.41578817,0.23370513
for,0.106298424,0.031345807,0.46771988,-0.028615786,-0.24701913,0.22237417,0.5818926,0.6337967,-0.65489316,-0.35049292,-0.5498929,0.53855914,0.67861533,0.23260085,-0.3178226,0.23121014,0.37975296,-0.14819902,-0.76871353,-0.3846496,-0.8310538,-0.4296668,0.19210467,1.2906462,0.040418,0.058077842,0.1752469,0.21899895,-0.56729,0.48086286,-0.0236598,0.4973391,0.69249266,0.11839097,-0.14615935,0.44274044,0.3738785,-0.30137855,-0.18860298,0.035662696,-0.05297084,-0.017714914,0.457394,-0.07453083,-0.20360379,0.14771418,0.25199342,0.12244802,0.5017374,0.11611444,0.15451033,0.11997976,-0.16646606,-0.49585125,0.06785543,-0.30999047,-0.89805806,0.46279594,0.4754615,-0.03071099,0.20068885,0.21921566,-0.75399137,0.6686489,0.41912276,-0.021682438,0.5590696,-0.39810568,-0.45390657,-0.6240993,0.1960158,-0.40709376,-0.36998457,-0.0449226,0.46479592,-0.41369608,-0.13694802,-0.46884975,0.113273434,-0.27216393,-0.43798298,-0.46444806,-0.42504534,0.6924696,0.5221208,0.57156247,-0.3467103,-0.4519349,0.195961,-0.23497191,0.27253902,0.49122497,-0.17174754,-0.012527954,-0.11388677,-0.44428557,0.22150923,0.036774885,-0.1745855,0.4053369
on,0.20075007,-0.12121472,-0.7040063,-0.3473758,-0.14281562,0.42580342,-0.07821008,0.25181615,-0.505306,-0.4101256,-0.7020688,0.1893547,0.36056483,0.1186277,0.037812665,0.6004046,0.0136823645,0.23254958,0.1042472,-0.28969362,-0.62368596,0.07596107,0.20896275,-0.12245366,0.7660141,0.55848074,-1.0169352,-0.9079385,-0.20962957,0.27309516,-0.18211232,-0.14664689,0.5621919,-0.2071332,0.37878546,-0.44944888,-0.5070274,-0.6718119,-0.16777119,-0.6715759,0.7002726,0.69698,0.5400452,-0.023045154,-0.14905329,-0.7800412,0.020586155,0.03711158,0.33323893,-0.35416347,-1.0654256,-0.13633023,-0.30314443,-0.5519364,0.41880557,0.63042396,0.02266924,0.313978,0.71941364,0.46545583,-0.23473391,-0.5525372,-0.26239341,0.72425,0.14662544,0.81344116,-0.109971434,-0.075668275,-0.09155272,0.06356892,-0.41551432,-0.63764894,0.45582038,-0.42225143,0.13549796,-0.39814395,-0.11123789,0.49357802,0.49615467,-1.3282824,-0.2340181,-0.8375603,-0.4841205,0.09344081,-0.030393079,0.47984493,0.43187752,0.25410438,-0.41324705,-0.2780718,-0.5354045,0.0478767,-0.10681695,-0.2564231,-0.1210275,-0.13505359,0.051263582,0.36164343,0.44155574,-0.25191528
cinema,-0.23411839,0.25469983,0.01931464,0.09313798,-0.5778248,0.53008944,-0.22159846,-0.1638124,-0.11333405,0.022021305,-0.9855575,0.5465828,-0.8001454,0.1275558,-0.8388533,0.37483191,-0.20904113,-0.68728006,-0.15169364,-0.27987358,-0.22827247,0.7749495,-0.094607644,0.3736555,-0.0037849008,-0.4454175,0.05924417,0.37398288,-0.44965935,-0.13840754,-0.116341986,-0.29679778,-0.3411295,0.27542415,0.4230734,-0.06160906,-0.727898,-0.4500164,0.5557785,-0.15832196,0.26861438,-0.33182865,0.92166364,-0.17313585,-0.079444274,-0.6394039,-0.00993663,0.45344478,0.41801077,-0.2148866,0.6721304,-0.032927126,0.036916345,-0.22136016,0.60067844,0.37372732,0.24580723,0.9022137,0.5872522,0.17852966,-0.113185376,-0.28017357,-0.35598078,0.49764317,-0.30811188,0.30897757,-0.5840407,-0.3032769,0.2669017,0.14719184,-0.5906209,0.7059021,-0.07764867,-0.3505377,0.61336327,-0.17049749,-0.07428452,-0.57264113,0.09823406,0.35737872,0.21675159,-0.42136943,-0.5292747,0.3871286,-0.93783563,-0.42859304,0.019267553,-0.50772685,0.14614415,0.11622087,0.086884096,0.5131763,0.34869385,-0.2518284,0.6767655,-0.4377759,-0.41283724,-0.17739645,-0.42082787,-0.038520586
its,0.16814141,0.7862334,-0.23570287,0.7852635,-0.10606939,0.19699787,-0.32484373,0.19334339,0.3267979,-0.23796771,-0.78373444,-0.1846387,0.77108806,0.2109955,-0.32118627,-0.25522554,-0.1462302,-0.32053834,0.790357,0.5206081,0.17114599,0.19398363,-0.13079324,0.31447437,-0.18159513,-0.17987633,-0.023584228,-0.25262386,0.026798885,0.072267994,-0.3702676,-0.39461625,-0.60731053,0.6075024,-0.33432674,0.44175535,0.4028208,-0.7957531,0.06723265,-0.7677309,0.7248238,-0.4933604,0.65254474,0.11100183,-0.54371136,0.20136684,0.05548324,-0.38693532,-0.10033971,-0.5908246,0.35381362,-0.7199549,0.23551111,0.539124,0.6910197,-0.45844212,-0.13944918,0.3026513,0.040244754,0.2741537,0.027683098,-0.012186958,-0.39556715,0.22030905,0.018238451,0.44335794,0.22697847,-0.05749315,-0.21505491,0.23103786,-0.60345227,0.71745706,0.2797589,-0.06066924,0.4585012,-0.12205153,0.49392334,-0.052015785,0.047405176,-0.07798184,-0.08374922,-0.39579883,-0.37511623,0.71554124,-0.3827188,0.5681087,0.5944276,-0.16270174,0.14018242,0.031395227,-0.019494554,0.025340345,0.086079955,-0.15239757,-0.017378489,0.1874064,-0.13154328,0.5451691,0.0051172157,-0.5056891
films,0.4263119,-0.6449708,-0.3963851,-0.17358541,-0.17105529,0.3701709,0.32235992,-0.46504772,-0.7256994,-0.8241733,-0.6622275,-0.42013928,-0.036632538,0.69040096,-0.20056328,0.802611,0.7241032,-0.38268736,0.71483463,0.37243065,0.6716377,0.44284305,0.33567375,0.5269617,-0.20847496,-0.14198981,-0.41913787,0.7091248,-0.5238229,-0.9275127,-0.23108517,0.8174056,-0.07999974,0.8273628,0.4532331,0.008191528,0.5096036,-0.078344755,0.38362795,-0.6303061,-0.23380807,0.45489106,0.45295864,-0.03419734,-0.36571997,-0.4245325,-0.64441854,0.17613357,0.18363078,0.0027695308,-0.62250686,-0.36791974,-0.19892459,-0.07293885,0.0574402,0.5491245,-0.18151748,0.32234854,0.24604468,-0.23187673,0.23137675,-0.092832975,-0.45596692,-0.09252989,0.105921455,0.16683589,-0.4343637,-0.234047,-0.39883554,-0.019478915,-0.35240918,-0.54093844,-0.2770663,-0.16899794,0.07469876,1.1035646,-0.25465333,-0.35597408,0.13510226,-0.39682478,-0.5349461,-0.61403465,-0.058853857,0.4544931,-0.7073863,0.35723215,-1.1029434,-0.34561992,-0.3571279,-0.029363433,-0.38126916,0.04810587,-0.6474042,-0.19290876,-0.2237913,0.19062139,-0.33334276,0.27722773,0.7454671,-0.08473283
be,0.10892698,-0.023973571,0.24925104,0.29694372,-0.23951449,-0.15440635,-0.92875916,0.10779991,-0.36326036,-0.17118183,-0.640671,0.53599626,0.22969188,-0.1394812,-0.33172736,0.0945955,0.25838888,-0.18281358,-0.19977652,-0.5596212,0.06996346,-0.10429611,-0.0075589633,-0.06431425,-0.1699614,-0.37162507,-0.5664581,0.35625395,-0.12418974,-0.14073415,-0.12526011,-0.23237108,0.95687485,-0.17950316,-0.8939333,0.16206595,-0.0944918,-0.8439705,0.37577787,0.38135323,0.4777575,0.42158622,0.23228264,0.011406384,-0.06855382,0.6471414,-0.44044042,-0.32913318,0.46580213,0.31045946,-0.43675682,-0.22741064,0.048527613,-0.106280506,0.32964414,-0.32203728,-0.1534235,-0.26356828,-0.68200487,0.592309,-0.43367535,-0.4863826,-0.45865026,-0.5054396,0.40118852,0.3848283,0.18981302,-0.22001061,-0.26539755,0.43145964,-0.81037915,-0.69196683,-0.16310446,-0.6133263,-0.15794845,-0.36550185,0.46936518,-1.1932647,0.2101086,0.04295431,-0.28822607,-0.039387595,0.060235683,0.5764872,-0.08858155,0.60936195,0.2525524,-0.25724608,0.41691238,0.5172485,-0.61481184,-0.5365204,0.43298754,0.10871558,0.4179733,-0.23397984,-0.5011848,0.12955894,0.018747604,-0.058633205
so,0.32029346,-0.25160247,-0.29450288,-0.021497916,-0.21106017,0.30870172,-0.3047857,-0.6120343,-0.026985968,0.02260695,-0.5698151,0.38122037,-0.122400366,-0.19972976,-0.115290865,-0.14370498,-0.35116214,0.0654062,-0.36381963,-0.114935465,-1.1341212,0.0026821604,-0.48447898,1.027171,0.23747073,0.888659,-0.602585,0.12679362,-0.41398013,-0.21833612,-0.38599986,0.14464593,0.41384786,0.008118539,0.21849597,-0.17451626,0.14345872,0.660341,-0.7996279,-0.42158246,0.5786501,-0.44716528,0.13206728,0.2975237,-0.108590536,0.19644584,-0.8154801,0.114382625,0.20197272,-0.51670384,-0.22507994,-0.28284347,0.09257755,0.28264767,0.26169124,0.3659676,-0.83789784,-0.80282325,0.15376109,-0.35619467,0.08009365,0.56783587,-0.4365448,0.38964614,-0.59176505,-0.37121475,-0.13238563,-1.2355505,-1.0523715,-0.47623858,-0.2444473,0.28487462,-0.500364,-0.5704499,-0.08811692,0.36392418,-0.11934791,-0.12032214,0.72001755,0.41322467,-0.22220977,-0.34541973,0.6221463,-0.09780861,0.049161647,0.59469014,-0.3471625,0.20161057,0.4964655,0.15791512,-0.7729667,0.17703015,-0.025248582,-1.1525797,0.17425866,-0.19816577,-0.096294016,-0.35144827,-0.22119658,0.3092593
an,-0.4120935,-0.07363467,-0.17392446,-0.4678527,0.21674824,0.58836013,-0.44641325,-0.3292326,-0.3418393,-0.4651978,-0.6418053,0.5877497,0.4984414,0.5961146,0.49320278,-0.00012939086,-0.27534196,-0.03598699,0.031190092,-0.40621498,0.043990344,-0.17835072,-0.38402185,0.36163756,-0.0063406844,-0.35795867,-0.2450314,0.25935915,0.16544679,-0.56712437,0.30614176,-0.9317631,0.44714427,-0.49286953,0.10919075,0.1312646,0.6389454,-0.032146163,-0.18010367,-0.10308083,-0.04459457,-0.9477177,0.20886005,0.24554078,0.16427355,0.66936296,0.22856183,0.7783532,0.9132003,0.0115980245,0.06658947,-0.048948735,0.31685832,-0.076731205,-0.024504805,-0.259626,-0.08492535,0.08307017,0.051804062,0.755122,0.4211785,-0.58926845,0.060560632,0.44630802,0.42300954,0.08767228,-0.67745256,-0.31447613,-1.2192737,-0.32091302,-0.3583095,-0.7387751,0.1205811,0.14156651,0.6369534,0.3936907,0.35397142,0.36147588,-0.49003056,0.076370135,-0.32145697,0.43251842,-0.18353622,0.03144317,-0.8908703,0.43504757,-0.55270964,-0.4220989,-0.57657087,-0.36832705,-0.06690138,0.40314007,0.40402684,-0.3267304,0.42523378,-0.4194334,-0.31217426,0.3442594,-1.0048155,0.18223532
out,0.109459445,0.37683547,0.83366877,-0.22390531,0.10414841,0.044404984,0.17891635,-0.19860293,0.30829826,0.51836187,-0.2417601,0.11719314,-0.2712096,1.0172292,0.4144558,0.55503994,0.32657185,0.12260165,-0.28847632,0.3833251,-0.048126563,-0.20739785,0.30870724,0.97136223,0.00843751,0.303529,-0.8279531,1.1916742,-0.81065834,-0.2085276,-0.018147541,0.63010263,-0.28248093,0.43268844,0.059263777,0.5511635,-0.080565855,-0.90230757,-0.27622408,-0.086424515,0.082059786,0.06331362,0.3737507,-0.092875,0.50479084,-0.0863031,0.20238948,0.71946615,0.64486074,-0.2777978,-0.020156985,-0.5374413,0.2990817,0.08007916,0.7039654,-0.40753758,0.10263077,-0.2017976,0.1034187,0.63544244,0.7081848,-0.6784236,0.13103423,0.70999527,0.7910689,-0.1528255,0.17246775,-0.01789599,-0.17692089,0.35970643,-0.14187889,0.2422024,-0.25714412,-0.28439063,-0.20958206,0.43147412,-0.048644815,-0.08127137,0.17835689,0.043619614,-0.034657467,0.081760034,-0.13654561,0.41034397,0.048776157,0.14017269,-0.5725927,-0.07146801,0.28450632,-0.4876544,-0.6620146,-0.20673853,0.91032493,-0.68417335,-0.019572692,-0.36254737,-0.3064444,-0.4731287,-0.48498884,-0.5031873
pacing,-0.45134166,0.0077483766,0.7340408,-0.14736965,-0.32046792,0.05842348,0.21817894,0.36178526,0.52928513,-0.04932309,0.32779694,0.21131353,-0.21155196,0.47624487,0.038258746,0.834317,0.051526446,-0.11361383,0.3691716,0.5978735,-0.0716967,0.1143168,-0.09440332,0.104643606,0.070295885,0.82806915,0.06098556,-0.21132597,-0.28984454,-0.55706316,-0.25851092,0.08551304,-0.3783466,-0.21449266,0.025851732,0.27009788,0.060994595,0.52943385,-0.25550032,0.7032772,1.0102168,0.56913465,-0.2164225,0.13952288,0.3808041,-0.04494556,-0.5008239,0.13663867,0.8693891,-0.5275033,0.02547268,-0.4269684,0.52575916,-0.8332585,-0.069816135,-0.10714557,0.12852883,-0.3909655,0.34953865,-0.2530717,-0.012390859,0.17351454,-0.062423952,0.37375733,-0.0052995547,0.45388958,-0.37724313,-0.16540626,-0.5313801,0.16596061,-0.24753274,-0.70900846,0.15815824,0.3204775,0.051659986,-0.135323,0.54810137,0.07376216,-0.32316223,-0.54813266,-0.17006388,-0.41298273,0.11465448,-0.02723228,-0.2648066,0.11483123,-0.13590963,0.102060035,0.38357162,0.65565246,-0.31179437,0.16109039,0.26590306,-0.32783884,0.5033969,-0.013106711,0.07489596,-0.074423775,0.0137311565,-0.2637159
best,-0.2556314,-0.6617116,0.313412,-0.17571567,-0.7845367,0.4351748,0.093360156,0.31946886,0.39586,0.69810385,-0.022290338,-0.19985235,0.76021117,-0.11412224,-0.33170927,0.22275136,-0.23249525,-0.55841035,-0.11374331,0.43595153,-0.08610826,-0.2658664,-0.8237799,0.39690897,-0.50862426,-0.2396862,-0.36351922,-0.38340712,-0.41412005,-0.53393793,0.4830409,0.06960071,0.38686097,-0.03554511,0.6191115,-0.62012506,0.913455,-0.45804077,-0.449607,0.2814234,-0.10759367,0.2642386,-0.36669806,0.4564421,0.7030372,0.31840602,0.05889437,0.9954411,0.89201874,-0.64823407,0.2347863,-1.3742826,0.2984473,-0.33743176,0.8702195,0.0067910273,0.17480855,0.35532793,-0.17474315,0.7870205,0.52539873,0.006856892,-0.94646096,0.26790124,-0.73408616,-0.11324727,-0.002785724,-0.21671852,-0.11198084,0.3309804,-0.3781668,-0.25517353,-0.22553137,0.2867854,0.3362197,-0.24470785,-0.121239565,0.6108402,0.23304859,-0.7701558,0.048032586,-0.039206978,-0.25023776,0.09040288,0.0932317,-0.27382246,-0.6600942,-0.69471586,0.4297796,0.31852776,-0.3893962,-0.27927694,0.26129064,-0.9101693,0.11149216,0.20869446,-0.99224055,-0.05052719,0.44706148,-0.2602831
single,0.2914577,-0.24787118,0.34311882,-0.28197703,-0.15125985,0.5848857,0.10890021,-0.024288183,-0.12098996,-0.39931342,-0.5838013,0.23115504,0.25380272,0.21748883,-0.16511911,0.1939546,0.8260023,0.21902774,-0.93781316,0.5172183,0.8858986,0.31663355,0.15703459,1.0034854,0.20206565,0.31739187,-0.053537495,-0.20162298,-0.6924767,-0.6327829,-0.5895469,-0.3215974,-0.3161839,0.17759918,0.016841777,-0.08971346,0.49515727,-0.44744533,-0.023525378,-0.16038539,0.25797808,-0.2679131,0.4044874,-0.5662308,-0.40803394,0.032743886,-0.41601384,0.27019432,0.055577166,-0.11682372,-1.137522,-0.56051075,-0.118062206,0.016931318,0.21898949,0.13095473,-0.066941276,0.22174452,0.6066198,0.36998522,0.38940078,0.0002410641,-0.034981083,-0.0073181633,-0.21047355,0.34281346,0.047431644,-0.61422306,-0.0877022,-0.14950866,-0.57948494,-0.30282882,0.5694025,0.37128216,0.051091503,-0.3786042,0.38788137,-0.45978633,0.27807578,-0.025474569,-0.84920776,-0.53779936,-0.23204106,-0.31562176,-0.5313886,-0.85947335,0.50075024,-0.83406115,-0.16664845,0.19024219,0.13856784,0.15695682,-0.8232026,0.25987107,-0.13739955,-0.34390634,0.31141588,0.047945734,0.31095645,-0.2859725
one,0.28254035,-0.09145618,0.68648547,0.023333231,0.19980563,-0.031898644,-0.2252356,-0.3802047,-0.16354579,0.4364885,-0.27778494,0.06982024,-0.35924023,0.30691317,0.14752503,0.2525489,0.078373715,-0.24953088,0.4316851,-0.028768957,0.32500842,0.01198252,-0.38626423,0.89695907,0.0102044325,-0.28687108,-0.24878898,0.8651702,-1.0198269,-0.31606162,-0.36382008,0.4408279,-0.43374768,0.08837373,0.9133825,0.53876257,0.17282812,-0.0645537,0.8866788,-0.04101762,0.37796116,0.37958416,0.3559572,-0.15995549,0.1914774,-0.45531276,0.34184662,0.34646177,1.1175462,-0.2174334,-0.24871005,-0.71358776,0.05343446,-0.068953924,0.2070476,0.58699733,-0.24126475,0.5864885,0.18224701,0.2624356,0.13530095,-0.63160235,0.5700419,-0.29775265,0.76404715,0.18486372,0.11825373,-0.3851085,0.22169867,0.29867586,-0.057520363,-0.329975,0.3600099,0.23258539,0.49027625,-0.27005664,0.6019025,0.26674902,-0.36391303,0.2797268,0.20563278,-0.30992126,-0.3663738,0.03891623,0.11672365,0.4219682,-0.7068812,-0.37171036,0.01423712,-0.32105887,-1.3123362,0.26742712,0.8254188,-0.6513721,-0.060109947,0.15546823,-0.46719745,0.344058,-0.5549333,0.16736746
without,1.162711,0.3019209,-0.12929371,0.5195205,-0.09514804,0.4778477,-0.101277955,0.105014145,-0.28968358,-0.46388173,-0.22560968,0.7013114,-0.30370775,0.06782321,0.6537713,0.066909544,0.9315154,-0.3954682,-0.5406124,-0.17819822,-0.19549383,-0.23435307,0.06839592,-0.179522,-0.19887806,-0.3712303,-0.7810346,0.11358379,-0.6580942,0.55831474,0.21083476,0.2079722,-0.03535715,-0.4689156,-0.6358533,0.37409773,0.13095522,-0.47988558,-0.10493989,0.10545114,0.6441934,0.089728504,0.4622281,-0.4090852,-0.528194,0.82468176,-0.40022323,0.7101112,-0.21113627,-0.2546611,0.057145864,-0.8908706,0.6813112,0.039153647,0.30455452,0.017687613,0.020713931,-0.34653407,-0.3876878,-0.07991677,-0.17362086,-0.6638373,-0.3672147,-0.18624517,-0.13431756,0.71847296,0.6082775,-0.4387948,-0.09277751,0.3386267,-0.52660906,-0.09003066,0.009300385,0.30517393,0.71494937,-0.22871408,-0.48767582,-0.6066033,-0.210845,-0.7045844,0.21669416,0.18114237,0.08664701,-0.35822144,-0.27222067,-0.17347723,-0.2490642,-0.54612374,-0.004834687,0.04356842,-0.63216054,0.08431895,0.15711862,-0.075296275,0.88127077,0.15738256,-0.45919085,-0.0264784,-0.44852167,-0.33284238
seen,-0.522086,-0.3200308,-0.4992984,-0.14728123,-0.31615582,0.16156052,0.3935476,-0.2883044,-0.5885579,0.09371152,0.2574865,0.37919578,-1.0468901,0.42799136,-0.8653508,0.44456682,-0.37591508,-0.66096556,0.1561718,0.17616607,0.27201197,0.81165457,-0.26916486,0.14593975,-0.42779434,0.61985785,-0.6647775,0.3649388,0.36703905,-0.19122289,-0.12976484,0.12858652,0.8084557,-0.19439118,0.21392244,-0.015479451,-0.21154754,0.13205135,0.6053,0.10179667,0.12591483,0.19911686,0.43519634,-0.17216232,-0.58822817,-0.17821492,-0.74393344,0.017632991,0.67916,-0.83641905,0.13530791,-1.1436787,0.4357593,0.63651747,0.3001849,0.35836956,-0.15684076,0.6391564,1.092616,0.20701478,-0.21693987,-0.42489472,0.0003530794,-0.1720213,-0.36625525,-0.1765677,0.64386487,-0.64583516,-0.3520574,-0.29962152,-0.039883535,0.1321801,0.31915733,-0.8652046,-0.09767872,-0.1199099,0.4074846,-0.076621495,0.17797135,0.709357,-1.5897917,-0.22114912,-1.0885135,0.19275813,0.44507322,0.41724882,-0.07417832,-0.7653511,-0.45021665,0.3034086,-0.2377578,0.2726884,-0.2580152,0.6920023,0.81112665,-0.057618733,-0.20614766,0.6087801,0.64069414,-0.78540593
performance,0.27887148,0.06374214,0.15845661,-0.14287144,-0.07712025,0.26356146,-0.06701756,-0.20368196,-0.23592034,-0.2854221,-0.24381593,0.5196603,-0.27500427,0.20783378,-0.54681087,0.3181201,0.045434453,0.046602618,0.7095974,0.3614057,-0.22216548,0.08163673,-0.5708824,0.92525095,-0.16417693,0.2033965,-0.43177226,-0.28873083,0.031834863,-0.1503838,-0.26498345,-0.15602496,-0.1957232,-0.16342857,0.43907678,0.32898465,0.053600814,0.51633865,-0.3187332,0.19740328,0.5324607,-0.45761803,0.4495062,-0.020438077,0.48330444,0.29167873,0.40175575,-0.27218577,0.84987473,-0.5214849,-0.27509892,-0.3067784,0.34297928,0.65516156,0.11065864,-0.120140664,0.46826056,0.2080831,-0.06382424,-0.18412566,0.36235923,-0.018446492,-0.13161586,0.6756752,-0.02703529,0.03256836,-0.12798353,-0.5192896,-0.30960998,0.15172373,-0.27488685,-0.4138313,-0.04526565,0.038862977,-0.45417354,-0.06601368,0.011425634,-0.7223381,0.0021335226,0.16833991,0.081011035,0.6391571,0.28817952,0.094688885,-0.13350044,-0.053403944,-0.48055214,-0.16068886,-0.3426355,0.4578092,-0.2389913,0.25844684,0.31272227,-0.82031655,0.029833725,-0.2655468,0.39376464,0.110186994,0.97800905,-0.019640174
act,-0.024055617,0.20590825,-0.2959512,0.35375425,-0.5934199,-0.5319831,-0.39398232,0.13225456,0.2074881,-0.13298978,0.18737406,0.0028605873,0.24700814,0.20016007,0.5424071,0.14481854,0.27100283,0.23047988,-0.4529963,0.185374,0.18351059,0.09726785,-0.35309792,0.8482565,0.24832913,-0.12918703,-0.3884318,0.09510775,-0.03374009,-0.10406238,0.16890892,0.4859002,0.35445946,0.5934374,0.006193345,-0.027680134,-0.044233013,-0.14302081,0.20742024,0.26011005,0.44881898,-0.11137372,-0.33906955,0.34136495,0.27429032,0.43765146,-0.59624654,0.18688728,0.062651835,-0.6144211,-0.041470256,-0.50178593,0.29693156,0.050637063,0.4150864,-0.043610748,-0.20615499,0.030485142,0.24463207,0.17659661,0.4886068,0.2892713,-0.45879585,0.4447534,-0.46337262,0.21022072,-0.6119277,-0.8216133,-0.0033368284,0.53062975,0.20364244,-0.41481972,-0.17683455,-0.21249123,-0.25932118,-0.12168098,0.48141873,0.4775124,-0.053298432,-0.27084187,0.38217556,0.69011384,0.3418088,0.3590393,-0.3140399,0.37436095,0.11401876,-0.11606144,-0.44780755,0.043564223,0.080166824,0.46364552,0.19163537,-0.70097566,0.46861622,-0.41450763,0.39709628,0.839531,-0.69497854,-0.2734058
scene,0.26323295,0.66582084,-0.111955725,0.5972575,-0.01456853,0.46330646,-0.123605154,0.7134388,-0.33766836,-0.49691445,-0.04145632,0.45846704,0.23101498,0.52952045,-0.5944051,0.5804289,0.05595862,-0.5671486,0.37250248,0.19489525,-0.32786983,0.12197832,-0.21845478,0.1194021,0.4937342,0.96391743,-0.14767705,-0.6152509,0.08648037,-0.41403404,-0.4759788,-0.33208463,0.22956717,0.17894052,-0.34381267,-0.41631913,0.19741538,-0.36968818,0.21062079,-0.47212252,0.45247757,-0.9534894,0.36386916,-0.34833735,-0.249834,0.3975285,-0.216146,0.31111825,-0.073190056,0.039846305,-0.34025142,-0.762021,-0.4699576,-0.5338538,-0.024671417,0.5933557,0.17475744,-0.26316342,0.6829246,0.7150443,-0.025978899,-0.13865888,0.08619252,-0.5406415,0.41101944,0.0065702107,0.6928581,0.008408787,-0.10506287,0.2114564,-0.33674493,0.36254722,0.6654248,0.05545871,-0.3520357,-0.4303006,-0.14404139,-0.28400546,0.36010602,-0.5104866,-0.18033725,0.027731575,0.82961226,0.42688906,0.3845089,-0.15709625,-0.4292315,0.3138988,-0.502194,0.13112436,-0.36353502,0.46392083,0.083738856,-0.4538487,0.50683886,-0.34329963,-0.53834647,-0.070668,-0.21234454,-0.021593183
direction,-0.28872466,0.19662227,-0.2177377,0.5403483,0.12756184,0.6029314,-0.16276288,0.44467822,0.31091684,-0.54617614,-0.053729814,0.099297106,-0.26582736,-0.052779477,-0.58709615,0.42640635,-0.7478749,0.44099122,0.0045814645,0.41257167,0.47336784,0.28192654,0.5422794,-0.117112145,-0.3208067,-0.17571856,-0.10692585,-0.0010667021,-0.3420423,-0.2458766,-0.18473251,-0.15325417,-0.011272739,0.53144073,-0.37507463,-0.105616145,-0.037645705,-0.46734488,-0.084911436,0.25631806,0.16615824,0.11625259,0.61686957,-0.26862156,-0.19952233,0.051007826,0.03642417,-0.28274617,0.36162066,-0.6840355,-0.044079904,-0.79425025,0.70503473,-0.22971913,-0.26621252,0.70947677,0.33663332,0.051254053,0.47038227,0.24599145,-0.042409696,0.54445034,-0.33098805,0.06660316,0.20235303,-0.15696678,0.07959261,-0.7051497,-0.47059095,-0.06412712,-0.024843866,0.022327662,0.0805782,-0.2735461,0.32090184,-0.18404786,0.099869244,-0.02865857,-0.0034274966,0.16307582,0.12154801,-0.21710826,-0.066825666,0.3127241,-0.9390165,-0.47241032,-0.112788066,-0.42025793,0.12644769,0.30461,-0.23837249,0.40528786,0.35022596,-0.033609465,0.28276643,-0.2806304,0.09959386,-0.13379256,0.015470494,-0.10620657
possible,0.049013708,0.07453646,0.22308308,0.22682859,-0.4306682,-0.544204,-0.016592735,-0.31519225,-0.5390997,0.29696575,-0.4926024,0.23096891,0.018324463,-0.49872363,-0.54090446,0.20133357,-0.75962096,-0.2853209,-0.0022655,-0.5249916,1.0177338,0.73429936,0.021597143,-0.16952626,0.30559522,-0.05076018,-0.20086442,0.26709804,0.124832526,-0.40705332,0.13327497,0.031135721,0.12298136,0.39191997,-0.032696676,-0.0046236585,0.11332262,-0.035640612,-0.54408497,0.85966897,1.0824485,-0.0035690577,0.95146495,-0.23289229,0.42408654,0.3533498,-0.43017626,0.3194453,0.59230065,-0.7491484,-0.07718054,-1.4713081,0.24884899,-0.0076924837,0.059142463,0.17529418,0.50026864,0.6038998,0.061643343,0.7939753,-0.24485679,0.3911512,0.23676224,1.0401164,0.39281467,0.34713182,-0.19030868,-0.4951243,-0.3720123,0.90182805,0.014184303,-0.073127545,0.33647874,-0.20254561,0.6428285,-0.37225962,0.16255964,0.033438794,-0.14463736,0.30079585,-0.51457435,-0.19349676,-0.14058992,0.036945388,-0.25772357,-0.45461926,-0.6710225,-0.50997937,0.16875932,0.29385585,-0.51487,-0.15235658,0.24366672,-0.13276501,-0.09598253,0.12970988,0.022413332,-0.5351005,0.30924118,-0.4405183
any,0.4579344,0.6020897,-0.17566809,0.6108009,0.26202008,0.32804126,-0.31151783,0.3188404,-0.30361187,0.35772297,0.16012031,0.8325241,0.2542808,0.36776963,0.25006208,-0.49541837,1.040079,-0.22997606,-0.1996112,0.13652295,-0.13958062,-0.22715244,-0.4306611,1.3748415,-0.6125342,0.2161973,-0.22089972,-0.24082209,-0.18189459,-0.21961465,-0.2129865,0.42191616,0.768206,0.27969378,0.34004325,0.016726611,0.5442474,0.3538544,-0.10563892,0.21488439,0.13226752,0.13741879,0.94206196,0.030901749,-0.25830418,0.20510167,0.04180438,-0.362313,-0.4066025,-0.22756165,-0.1569935,-0.28261667,-0.67281526,-0.30099824,-0.18282153,0.0027760786,-0.33135185,-0.17957388,-0.09289852,0.581114,-0.4152441,-0.09468809,-0.7249796,0.3387473,-0.20950231,-0.7533463,-0.23706627,-0.058040857,-0.36310843,-0.5387089,-0.34875342,-0.4358524,0.16093001,-0.063484125,0.247264,0.39273563,0.76131696,0.67197585,0.90524995,-0.42950055,-0.67721176,-0.7157917,-0.50624835,0.9228994,-0.25214294,-0.52708673,-0.54031056,-0.94872296,-0.1639917,-0.39660522,-1.3389672,0.034587257,0.10218262,-0.48996457,0.46354267,-0.2780267,0.10136132,-0.50483865,-0.5785851,-0.26499242
deeply,0.1446183,0.47925115,0.12300617,0.7002719,-0.3651208,0.9845425,-0.20926511,0.017964186,0.57133543,0.06837842,-0.46564457,0.10850105,-0.15984294,0.10607423,0.032968886,0.13473453,-0.121114396,-0.2533152,0.22948197,0.2494353,-0.17038363,-0.9186721,-0.19607732,0.5323362,0.5141794,-0.028162673,-0.47867265,-0.05597554,-0.35769382,-0.24154995,0.039646152,-0.033869036,0.6362562,0.23163141,-0.27127767,-0.35280102,0.4510476,0.7243851,0.6096884,0.34228808,-0.012588408,-0.3467598,0.4756071,-0.2705591,-0.3351453,-0.0069789635,0.4327871,0.4177726,0.21606761,0.00843449,-0.3477535,-0.6934122,-0.8678578,0.06636801,-0.12596789,0.15239137,-0.21575816,-0.099478334,-0.549696,-0.15908934,0.107230164,0.2163502,-0.45977944,0.24522732,0.5139096,0.5248804,-0.1423564,0.17681445,-0.32962272,-0.03913862,-0.6207202,-0.36403108,0.32075056,0.005772681,-0.41034514,0.1260568,0.21296139,-0.45036954,0.3210385,-0.687782,-0.05981406,-0.27473837,-1.0038369,-0.017996235,-0.066125624,-0.3427452,-0.48243356,-0.07333897,-0.32605347,-0.07323653,0.028867247,-0.015177804,-0.06902901,-0.70619893,-0.49895906,0.2763301,-0.054818153,0.07232344,-0.12213337,-0.40252274
my,0.587835,0.7931473,0.5539225,-0.4892288,-0.029302891,0.22345147,-0.11569329,0.6719305,0.19763653,0.089681804,-0.6609787,0.15088066,-0.24665974,-0.113834016,0.015942976,-0.01249209,-0.64008105,0.24645358,0.1835315,0.10289063,-0.5557325,0.1432325,-0.8749766,0.04100077,0.5350638,0.10011615,-0.68350667,-0.08783983,0.115721576,-0.8787654,0.27045867,0.029646924,0.2782402,0.42840457,-0.49579877,0.11639686,0.6315702,0.35653093,0.3931568,-0.26620016,0.145475,-0.30296016,0.7350179,1.349172,-0.94738865,0.24543585,-0.41471165,-0.067868665,1.4191204,0.33655062,-0.1986622,-0.33370483,1.0930744,0.14444059,0.5808658,1.1934874,-0.19504637,0.012911976,-0.4585987,0.25853425,0.26125643,0.4452607,-0.59003115,0.16202836,-0.03241108,1.3022906,0.06317416,-0.09938474,-0.21687841,0.17593856,0.012369522,-0.09908856,-1.0079468,0.10176557,-0.70566916,0.04110795,0.6711186,-0.009025711,0.48131987,0.027870968,0.052877598,-0.32066512,0.5877299,0.3709774,0.112244666,-0.41867998,-0.048930783,-0.7360527,-0.9224571,-0.49827108,0.048363563,0.14028461,-0.8126888,-0.15477675,0.8838313,0.02745437,0.07629346,-0.042161237,-0.04679799,0.26635695
at,0.37326324,0.06152896,0.25594804,0.54255325,0.1213694,0.534197,0.25067407,0.10207188,-0.08381107,-0.5986479,-0.23490752,0.82512045,0.03013118,0.08653052,-0.35017952,0.4695367,-0.8342357,-0.16968252,0.48618042,0.18263182,0.0070888037,-0.3797427,-0.2762976,0.81376284,0.069382526,-0.42503908,-0.54381365,0.14123486,-0.36066005,-0.44760787,0.74719757,0.42912856,0.14041859,0.1949922,0.9881995,0.06300826,0.53620505,0.38423052,0.27511227,0.6803395,-0.44225314,0.9254822,0.75930977,0.048500773,-0.697566,-0.39121604,0.5232586,0.36759076,0.58358574,-0.3813511,-0.77288914,-0.62446487,-0.28208232,0.4725039,0.57513374,-0.14904068,-0.14306286,0.43275508,-0.68653923,0.8868248,0.59408706,-0.5352656,0.21923359,0.83363396,0.72201216,-0.078003354,0.3905408,0.106358275,-0.26270732,0.08122017,-0.5489478,-0.5269017,-0.13869148,0.422325,0.45879126,1.10052,0.33874595,0.20200741,0.20894508,0.13102645,-0.6553386,-0.44004408,0.22854201,-0.20854871,-0.16891177,0.21908145,-1.0598395,0.48165947,0.0005977136,-0.08354055,0.2517488,0.3077929,-0.0039351573,-0.82454073,0.5964188,-0.49628508,-0.45361885,0.44102,-0.6283374,-0.8068869
rarely,1.2065381,0.6730868,-0.62338024,0.42420658,-0.6413312,0.02805106,-0.58873,0.79022235,-0.48031682,-0.0748486,-0.7510226,0.20761694,-1.0060874,0.5538889,-0.5859271,0.42324418,-0.7588232,-0.40846774,0.0393723,0.27841797,0.10198854,0.8472675,0.16269396,0.41921222,0.15344952,0.98962677,-1.5166667,-0.24037112,0.26219785,-0.19197357,-0.46102333,-0.58724564,0.5837859,0.2548252,0.9348276,0.5475708,0.25076598,-0.14628023,0.9296242,-0.2252113,0.57192427,-0.23642242,-0.7208382,0.5757828,-0.23586272,0.055466715,-0.32588017,0.42974535,0.4764433,-0.5012873,0.4825487,-1.3562586,0.52757597,-0.20015894,-0.10769893,0.30047292,-0.6238032,0.22430134,0.57224244,-0.47471693,-0.122796945,-0.3183464,-0.3743965,-0.06518053,0.0664705,-0.48283818,0.17161748,-0.31811246,-0.3188868,-0.5340998,-0.1335697,0.05892335,0.058049403,-0.9398158,-0.34320465,-0.37677902,0.15701012,-0.31681776,-0.23004824,0.25866553,-0.3121998,-0.4454891,-0.98944926,0.29485774,-0.47662565,-0.106238246,0.07585516,-0.5100612,-0.5111856,0.5197166,-0.06540769,0.10403642,-0.050110746,0.5720492,0.06487327,0.14410567,-0.010310203,-0.8356099,0.6422421,-0.10962824
watch,-0.0048498325,0.56828165,0.65867126,0.13144296,-0.06815799,0.5544982,1.2025368,0.43757257,-0.08980019,0.2933316,-1.1851082,1.6106502,0.10975236,0.29481187,0.84856355,-0.5280596,0.8967924,0.1744627,-0.32326669,-0.05501522,0.2689231,0.21847351,-0.5118877,0.9325665,0.95584387,-0.87325555,-0.33931148,0.33305764,-0.07553499,-0.847602,-1.3228227,0.3079749,0.024145555,-0.07871695,0.19209248,-0.44271556,0.23902543,-0.93057275,-0.73242325,-0.9251153,-0.48672545,-1.0324235,0.48124313,0.42425412,-0.7916445,0.12388594,-0.41903442,-0.20847134,0.97639424,-0.05765867,0.649318,0.24794118,-0.5078755,-0.8064964,0.6663826,-0.13796324,0.42206156,-0.52418905,-0.7436936,-0.09455151,0.2509444,0.2042288,-0.59289473,0.73207575,0.009705031,0.19904716,-0.6937099,-0.20683081,-0.99112254,0.42360738,0.87753856,-0.5437955,-0.060375288,-0.6909197,-0.24715501,-0.34104258,0.1069781,0.29596984,-0.44124156,-0.37878683,0.49024525,-0.48469907,-0.95172155,0.86586654,-0.51337993,-0.51347816,-0.22941916,-0.5045996,-0.024620373,0.1558235,-0.15033048,0.43233222,-0.13660443,-0.98216975,1.4896739,0.09447969,-0.36958283,-0.3741057,-0.82535565,0.4900851
your,0.11981959,0.26379076,-0.67124516,-0.2135957,-0.27307025,0.98091817,0.046067998,0.36643654,-0.20418584,0.0038576827,-0.67620647,0.9882651,0.9502178,0.1271702,1.000752,-0.09261706,0.07933039,-0.059313886,0.13198587,0.36478472,0.2316415,-0.27588764,-0.14804438,0.38492855,0.8232574,-0.092876345,0.41070044,0.26957792,-0.38119572,0.35061485,-0.08730514,-0.39014882,0.9497337,-0.30723357,0.44380313,-0.0049177576,0.34620315,0.3992454,0.5794161,0.39066595,-0.24693084,0.12626822,0.041994624,0.12590572,-0.810401,0.42073354,-0.4747866,-0.6755327,0.75446326,0.32919508,-0.54773253,-0.6316267,-0.50522023,0.44816628,0.13520628,1.0892253,-0.63895684,-0.34685665,-0.0552379,-0.04485107,-1.0390459,-0.11654314,-0.5215702,1.094403,0.89527065,-0.20788923,-0.14546192,-0.84237915,-0.7066856,-0.10495915,0.4916226,-0.062334552,0.07617416,-0.26413012,0.5746601,0.48355886,0.49424717,0.4935904,-0.6983386,0.40576714,0.6468252,-0.551761,-0.30954757,0.14743914,-0.08275818,0.3454979,-0.5352754,-0.5276527,0.16883272,-0.0011201258,-0.6909662,0.6279059,0.09551374,-0.8408171,-0.21414898,-0.11474084,-0.3632821,0.86096674,-0.73886347,0.1259261
like,0.13418067,-0.16759329,-1.0942862,0.895168,-0.40605006,0.4086228,0.10277533,0.25501806,0.030340305,0.46960658,-0.6920198,-0.25713873,-0.2605381,0.46013182,-0.05340161,0.5207547,0.30744016,0.30293092,-0.036630698,-0.37270132,0.6421023,0.69368273,-0.06885517,0.6183765,0.62966096,0.00488296,0.098017804,0.067532,-0.67651564,-0.71077377,-0.016634684,-0.4634424,0.56394273,0.09370404,0.31510764,0.45858577,0.11656319,0.3152765,0.15170023,0.5451057,0.10431353,0.63110393,0.73558515,0.46550065,0.005180463,-0.41559517,0.5563114,0.7846021,0.07960892,1.1118206,0.2087632,-1.0471486,1.0380082,-0.10774175,0.09112823,0.45609432,0.07025827,0.529102,-0.51564014,0.078692496,-0.09025893,-0.065944076,-1.254466,1.1276139,-0.100235656,0.20159434,0.5801061,-0.20507814,-0.9881752,-0.027097572,0.4873775,-0.2505591,-0.70433635,0.29533938,0.6007279,-0.02582824,0.77203304,-0.46892485,0.8079909,-0.50699013,-0.33744174,-0.7613344,-0.74922127,0.0075056776,0.18114838,-0.22652599,-0.12844937,-0.23522381,-1.4024433,-0.05463323,-0.080931924,0.10746841,0.22187044,0.59230936,-0.009956789,-0.3789576,0.579774,-0.83107334,0.12740993,0.06808681
what,0.34454012,-0.5832363,0.7476632,0.6519367,0.17470153,0.39438668,-0.86538815,0.44532597,0.33762288,0.2928288,-0.8875424,0.19174075,-0.05814462,0.5951534,0.12025013,-0.5183458,-0.05623409,-0.52588713,0.3195281,-0.6580413,0.31984726,1.4107759,0.3005689,0.19911472,-0.21965005,-0.7057855,-0.2112857,-0.41597185,0.03828489,-0.2438997,-0.73264986,0.022834467,-0.39184716,-0.17398106,-0.47770506,-0.40033022,-0.60703707,0.2895333,0.31859326,-0.0050216345,0.4947055,0.9432913,0.6318448,0.61278826,0.12040763,0.7197876,-0.12447949,0.5843551,1.0564898,0.13658993,-0.19563118,-0.90960574,-0.079901434,0.3716796,1.0299344,-0.02968992,-0.21218216,-0.99229085,0.6632938,0.29074585,-0.37477243,-0.0030683917,-1.330319,0.116902895,0.35067087,-0.44394928,0.50410646,0.39261147,-0.89427984,0.4069577,-0.015055311,-0.017409693,-0.91089815,-0.1668454,0.79001606,0.0736826,-0.068952516,-0.36320308,1.1208663,-1.0675718,-0.6940337,-1.0597792,-0.41810012,0.22918844,0.54323876,0.43448344,-0.71491504,-0.52262664,-0.015903644,-0.011217349,0.04111993,-0.048153125,-0.2905561,0.5532563,0.9081795,-0.3956973,-0.4779068,0.10121971,-0.31653693,-0.15517342
screenplay,-0.1049341,0.05439191,-0.077221304,-0.5603495,-0.5780109,0.012016105,0.22498003,0.4047441,0.32771373,-0.20634314,-0.7186045,-0.23147516,-0.014682387,0.50604194,0.31742558,-0.3196233,-0.09877794,0.18900554,0.8756768,0.26900774,-0.07699244,-0.18692091,-0.079726964,0.077987395,0.27763495,0.63681775,-0.4348506,0.14148526,-0.23883988,0.111926064,-0.19142745,0.2850863,-0.20675394,0.18423605,-0.10850105,0.57512414,0.6478932,0.25695032,-0.27796346,0.37156907,0.40783483,0.23071161,0.44154498,-0.1060785,0.2428347,0.13573246,0.13226075,-0.025973303,0.53360087,-0.52242994,0.286118,0.10144123,0.09361866,-0.48830125,-0.26229274,-0.3786348,-0.0883168,-0.14445135,0.6334495,0.50959826,0.5100812,0.17580737,-0.28008893,-0.025453739,-0.2748358,0.07686988,-0.087177664,-0.7749204,0.2522865,0.085749,-0.65407753,-0.67265165,-0.43882057,0.12662986,-0.06133618,0.13503475,0.7280092,-0.14810333,-0.3901822,0.132146,0.114031985,0.31388178,-0.31768242,0.03022763,0.2658131,0.39072278,0.045022327,-0.07373307,-0.0015724656,0.36891592,-0.20702332,0.49111897,0.80713797,0.12155955,0.78179985,0.22203809,0.4061471,-0.24586487,0.043225925,-0.16430509
or,-0.20546502,0.23320709,0.15878168,0.17625198,0.091252826,0.34474593,-0.0849001,1.0825698,0.82227135,0.6126705,-0.7499534,0.022273187,0.3210444,0.51106834,-0.69944173,-0.25343984,0.5407785,-0.29573727,-0.074099384,-0.85992664,-0.3549737,0.6843761,-0.073173285,-0.15167919,0.11779714,-0.23045465,-0.40256238,-0.70089626,-0.31525272,-0.020329904,0.7459912,-0.057716746,0.4651003,0.03310364,0.060364176,0.07209802,-0.22119892,0.1928015,0.060857795,-0.23741269,-0.19274986,-0.14340419,0.23651004,0.24792518,-1.3151348,-0.48642725,-0.74079955,-0.029224986,0.12918845,-0.27165818,-0.09969152,-0.33570215,-0.6983968,-0.41530052,0.2762118,0.25216618,-1.0762424,0.028074807,-0.41920593,0.32645345,0.33474207,-0.4550279,0.11018267,0.34884363,0.0952549,1.1473913,-0.017197197,-0.40237334,-0.28519323,-0.41889882,-0.109812,0.41605452,-0.0686025,-0.08375432,0.29665947,0.31877384,-0.39379987,0.27922434,-0.33407176,-0.66701645,0.13788478,0.097938806,-0.10151165,1.1352221,0.42769182,0.15945612,-0.3883778,-0.74790525,-0.5521373,-0.2587877,-1.1979818,0.70830834,0.3813302,-0.73793745,-0.5399688,-0.8263133,0.69729817,-0.51898426,-0.15548159,-0.3426319
genuinely,0.24778135,-0.29180175,0.3570519,0.15044627,-0.23874742,-0.1383012,-0.019346371,0.95235705,-0.43305302,0.15771042,-0.9040736,-0.36032382,0.079704344,0.42507768,0.115327366,0.2392269,-0.28928393,-0.57720906,1.3137296,1.0545685,-0.18287379,1.0410936,0.42161506,0.37981623,0.36138532,-0.7552409,-1.5121828,0.025292663,0.39616853,-0.2602458,0.20631585,-0.26508668,0.85050625,-0.3406511,0.5422456,-0.67311835,0.10685994,-0.7884346,0.7155473,1.0662172,0.5877775,-0.5010856,0.4298899,-0.22412634,0.043339297,0.58571464,-0.013662191,-0.12906735,0.55360717,-0.14519061,0.94008434,-0.69406223,-0.031713184,-0.43553868,0.24328315,0.57136756,-0.2978203,-0.4252845,-0.49189004,0.030501781,-0.80987835,0.6926598,-0.48418817,0.44121084,-0.0036307527,0.044307027,0.6256305,-0.94311666,-1.8159318,0.021161115,-0.30058545,0.35323873,-0.782802,1.169678,-0.44425637,0.4836478,0.58615637,0.031490173,0.29858944,-0.204389,-0.8487206,0.51256615,0.15818384,0.023631014,-0.38234743,0.044981234,0.31690118,-0.5249331,-0.21799517,-0.2017416,0.05429329,0.5441623,-0.24632117,-0.8119344,-0.2485627,-0.7141277,0.8428956,0.1558504,0.7904263,0.75464123
ever,0.017415391,0.3379334,-0.13190131,0.30194667,-0.114004925,0.53443915,-0.378311,0.60939837,0.39544365,0.21108368,-0.6986905,0.35094273,-0.09136739,0.7565789,-0.07748735,0.33350697,0.4793599,-0.20212348,-0.5128228,0.6563604,0.09341037,-0.09240167,0.5081119,0.5112912,-0.10452313,-0.06096491,-0.082260035,-0.27004415,0.08412397,-0.36265403,-0.30711925,0.468338,0.5217003,-0.7337427,-0.7088757,-0.15853019,0.09265161,-0.0039353874,0.3950473,-0.5764685,0.43461663,-0.63788444,1.2076833,0.17601678,-0.6834104,-0.4390117,-0.46179253,0.33171746,0.16908959,0.122861594,0.5019811,-1.8087195,0.08491485,0.322777,0.28226668,-0.21323733,0.08246692,0.44628572,0.058831543,1.1113063,-0.8600326,-0.70948946,0.24110658,0.10640851,0.0072719525,-0.06770603,-0.16536611,-0.8714957,-0.17386785,0.15977181,0.0075060516,-0.55868036,-0.30566305,0.07441136,0.7846327,0.059812132,-0.45276064,-0.5160021,0.4546444,-0.63640517,0.43120417,0.4939358,0.015540592,-0.44797534,0.23199137,-0.12228422,0.2712675,0.24848786,-0.2999414,0.01665205,-0.34002712,-0.0077910665,-0.19874887,0.12392402,-0.025592878,0.0817228,0.404749,-0.15294488,-0.18856765,0.49598545
both,0.28218666,-0.4311543,0.08781545,0.41622397,-0.5201678,0.5323264,0.094477415,0.1541444,-0.30892244,-0.33928788,0.11625466,0.2044079,-0.73954946,0.65763605,-0.2118205,0.50490975,0.19802094,-0.94586176,0.51396734,0.45815486,0.26301628,-0.17563736,-0.4148292,0.1477105,0.44278878,0.48232788,-0.2224076,-0.027661067,0.0965667,0.42927426,-1.0961673,0.71301943,-0.1102162,0.28782415,-0.38740924,-0.119321235,0.791781,-0.15562387,-0.14466411,0.061379172,-0.013012884,-0.12561616,-0.41106653,0.24322094,-0.04326561,-0.3043732,-0.27434677,0.2225265,-0.24773698,0.14364025,-0.12552267,-0.34516174,-0.16248304,0.3172622,0.44403812,0.24216236,-0.2658436,0.86069286,-0.11760723,-0.29275092,0.19564281,0.54207104,-0.48965824,0.36856782,0.35082504,-0.09785221,-0.45774123,-0.8827715,-1.2023277,0.23283005,0.28221834,-0.602438,-0.54092246,0.3490777,-0.5452505,0.090439856,0.63204575,-0.42666534,0.14801641,-0.5356734,-0.12989067,-0.29198965,0.017991794,-0.023973877,0.21069436,0.3169864,0.1422301,-0.9593419,-0.54951006,0.10532145,0.399095,-0.19458671,0.6047725,-0.34642684,0.10822171,-0.7999273,-0.18413159,0.47759172,-0.5096132,-0.6290006
lead,-0.07955148,-0.31992012,-0.109838806,-0.47728118,0.054396573,0.31565425,-0.49095625,0.095682316,0.40123364,-0.13770947,-0.22629564,0.43989623,-0.41206542,0.38956344,-0.35300785,0.16098589,0.051578872,0.13615507,0.6478764,0.0783147,-0.28886926,-0.3763864,-0.24503711,0.4263544,0.49785474,0.6804055,-0.21504438,0.33258134,-0.48305076,-0.38917112,-0.50852054,0.30192566,-0.16943033,0.33652234,0.22844681,0.68944424,-0.13948783,0.32749292,-0.52706206,0.6510307,0.14517525,0.11979814,-0.32660487,0.34414315,-0.0105876,0.28830394,0.07372222,0.0153492205,0.038990803,-0.19632578,0.17772178,-0.40538004,0.3764641,0.2258848,0.3697063,-0.013777406,0.09352318,-0.52500343,0.3312929,0.4959131,0.6130009,0.08835261,-0.078930296,0.3977669,-0.20272483,-0.06930914,-0.11670572,-0.4832724,0.039475,0.041844852,-0.45452267,-0.5300571,-0.31188866,-0.16193525,-0.09590337,-0.3396414,-0.024334444,-0.39932805,-0.29287094,0.21339825,-0.17075592,0.16732727,0.24859715,0.25888267,-0.3364689,0.32166573,-0.036731236,-0.10853411,0.22798726,0.32237706,-0.32284307,0.6438528,0.46873447,-0.92300934,0.3726893,0.09530377,0.64596003,0.15424909,0.6146674,0.52620584
minutes,0.47143662,0.036351617,0.086832866,0.7978082,0.054349735,0.35655162,0.2258467,0.07727239,0.6119676,-0.15257564,-0.21474008,-0.55782735,-0.5298991,0.80936575,0.07490566,0.56641656,0.75387007,-0.32907328,-0.005806375,-0.8973938,-0.25259903,1.0039793,-0.2597045,0.29556844,0.37927216,0.24107048,-0.71829283,-0.491073,-0.40819618,-0.26844037,-0.85412806,-0.48665956,0.3962366,-0.26996616,-0.60623914,0.07063479,0.06449623,-0.05231913,-0.04818845,-0.20822908,0.10226975,0.29400453,0.61312443,0.0018520723,-0.8538885,0.3143413,0.3524692,0.26131988,0.23042008,-0.2722274,-0.14926206,-0.89051247,-0.5598908,0.5762577,0.26174116,0.4583766,-0.14845504,-0.05735778,-0.21898752,0.6354001,-0.1822156,-0.7227144,-0.93697953,0.09087351,-0.11233868,0.8415385,0.121224366,0.022517223,-0.8233713,0.14389731,-0.5945638,0.3958028,8.809783e-05,-0.11853265,0.8461255,0.034077458,-0.003646248,0.3551672,-0.0918752,-0.137126,0.3039698,-0.4551231,0.2414724,0.49326932,0.5791469,-0.44047394,-0.16986968,0.4252049,-0.7425004,-0.99107444,0.10353824,0.3774602,-0.42067078,0.6649329,0.8594814,-0.35894415,0.032442518,-0.092873104,-0.16086866,0.26357248
themes,0.29007387,-0.5791085,0.15736577,-0.79886156,-0.12094817,0.36543527,-0.4700025,0.92881054,0.6278,-0.07415289,-1.1253275,0.47782165,-0.012166387,0.5290962,0.49137044,0.014550734,-0.076355495,-0.14429565,0.5510071,-0.45251924,-0.12167207,-0.39764887,0.19170386,0.45395175,0.4280947,0.8028291,-0.16600864,0.4178525,-0.8177367,-0.33878076,0.1071238,0.22991188,-0.5226241,0.293288,-0.15754792,0.49694222,0.2646168,0.054914188,-0.44608024,0.4349918,0.68520415,0.44195497,0.0344468,0.54999644,0.33042207,-0.45027685,-0.5987158,-0.08950322,-0.06917795,-0.6693623,0.34064493,-0.6950234,-0.07148591,0.22054201,0.5135958,-0.7170537,0.17263015,-0.059858665,-0.2366418,0.198947,0.50753355,0.3297142,-0.19428034,0.18810385,0.055949334,0.06000058,-0.034773715,0.49538642,-0.43357217,-0.3523773,0.31197459,0.5639137,-0.15972997,0.09025313,-0.46272555,-0.1629575,0.288507,0.17034815,-0.5293105,0.25860524,-0.6120867,0.65329194,0.01732299,0.36373207,0.08506437,0.2939769,0.28645614,-0.0665898,0.5014089,0.29273745,-0.45680556,0.57502556,0.27443537,-0.24995942,0.3459085,-0.027300017,0.499277,0.46255738,0.26875347,0.14520545
subtlety,0.22817229,-0.11584492,0.14871535,-0.20913751,-0.592098,0.096792296,-0.53570646,0.9735784,-0.19084357,-0.33409,-1.3772236,0.75450426,0.5627969,0.35034826,0.44694963,-0.29179618,0.02254911,-1.0920447,0.02326906,-0.6343357,0.4269962,-0.20810364,-0.1951492,0.11606409,0.54693794,-0.5418331,-0.1228633,-1.0172741,-1.1806871,-0.40974137,0.30408785,-0.054453447,0.093034506,0.38476643,-0.47053787,0.85462433,0.41882843,-0.07596345,-0.13532373,0.13177837,0.5478685,0.42778972,0.28138587,-0.71917045,-0.29265288,0.17636749,-0.73148054,0.04169268,-0.064357415,-0.3285566,-0.09302285,-0.50430536,0.19640653,-0.094760716,0.902741,-0.1540186,-0.49809372,0.23458058,-0.6536499,0.15162714,0.37181082,-0.30958062,-0.21926133,-0.12412556,-0.73982924,0.5546662,-0.12003911,0.3643183,0.027034014,-0.49378964,0.668759,0.14441447,0.3478617,-0.6242375,-0.023674117,0.09495681,0.1976368,-0.36221224,-0.19920766,-0.45316017,0.13777481,0.36743015,0.03074531,0.043316703,-0.14193945,0.35614496,-0.35828778,-0.20024991,0.046876937,0.3493409,-0.8438674,-0.16508141,0.34048006,-0.13963288,0.2584411,-0.589191,0.23290662,0.27380472,0.44591784,-0.56394976
has,-0.18242547,-0.1750207,-0.38065678,0.9669452,-0.0061108326,0.17994216,-0.36190227,-0.08026527,-0.46739984,-0.9834799,-0.89856005,0.5723736,0.30009642,-0.051441375,-0.15087575,0.21836734,0.48752278,-0.5720978,-0.47868654,-0.34965688,-0.47679457,0.41704646,0.7737481,0.30188003,0.24857144,-0.54748386,0.319282,-0.853732,-0.28273243,-0.28735292,0.3910681,0.8357908,0.41799253,-0.2843468,-0.28983673,0.08579009,-0.05291547,-0.38285464,0.19077419,-0.0411755,0.5666906,0.036331598,0.3490047,-0.47010568,0.4271757,0.40552595,0.18964204,-0.42270482,0.29421052,0.3379817,0.015019992,-1.5646405,0.62744874,-0.457682,0.22185698,-0.45256594,-0.013821737,-0.3039317,-0.98567206,0.18018411,-0.11883185,0.052737683,-0.32877156,-0.516464,-0.5221482,0.6719572,0.46736255,-0.36067012,0.014261775,-0.18741664,0.11189651,-0.44663846,0.024847202,0.78775674,0.44950965,0.08690511,0.90921855,-1.0005033,0.39926505,-0.3495309,0.31578806,0.40851334,-0.05143315,-0.50118,-0.0451133,0.25899494,0.7132662,-0.6312293,-0.1707656,-0.23920362,-1.2869107,0.0059051453,0.10534557,-0.88587385,1.1334065,0.25322285,-0.074128024,-0.3081105,-0.006875474,0.24699125
purpose,-0.29952216,0.8006497,-0.032261916,-0.10445663,0.21572095,0.30779013,0.2033739,0.653042,0.15772212,0.1515774,-0.48916334,-0.4351099,-0.09665372,-0.0080525,-0.10573684,0.7103167,0.672268,-0.5134422,0.18204036,0.07628708,-0.24119642,-0.046269152,-0.3627314,0.009159409,-0.16813183,0.81475306,-0.1139012,-0.27741227,0.5400992,-0.6759279,-0.3831298,-0.49113715,0.7329312,0.27966043,-0.79141444,0.0381303,-0.72615963,-0.4094699,0.3022413,-0.037981756,-0.17328934,-0.3478587,0.7408731,-0.52732116,-0.81476665,-0.5359006,0.28295514,0.3046953,0.13560566,-0.485222,-0.6864195,-0.5820771,-0.2770935,-0.29618853,0.093446076,0.54766226,-0.47677353,0.1364401,-0.20115471,0.17724949,0.2975692,-0.47658807,0.0887042,0.1596487,0.16894627,0.46535286,0.61661303,-0.19078796,-0.8180624,0.057170086,-0.2322341,0.2501366,0.60522205,-0.31522804,0.30466715,-0.106166534,-0.0321534,-0.025403874,0.77285105,-0.33328444,-0.45492557,-0.19592214,-0.23681642,0.023397872,0.16588557,0.08611298,0.4553059,0.13021433,-0.25770465,0.1608155,-0.30692923,0.38121355,0.02320843,-0.10071916,0.73289704,-0.18051736,-0.6575662,0.2799031,-0.186045,-0.34266964
world,-0.2317925,0.080028035,-0.12725587,-0.6430572,-0.32916126,-0.5124856,0.2427427,0.42310023,0.2628075,0.26925793,-0.034959488,0.38903356,-0.12207613,0.58563715,0.42745778,0.26612845,0.18125923,0.5706622,0.46232653,0.038422402,-0.22932117,-0.38331595,0.112348676,0.6737184,-0.023378685,0.57325345,-0.70484674,0.24067064,-0.019323615,0.0062918575,-0.06183058,0.11793806,-0.5834632,-0.777785,-0.13756768,0.27488133,0.47741216,0.4480759,-0.0153532615,0.13842236,0.21827088,0.12992366,0.3935288,-0.22579779,-0.18520127,0.5420667,-0.5296764,-0.06164837,0.31859702,-0.7003107,0.4310011,-0.6088546,0.29030156,-0.2800179,-0.095665134,-0.13233198,-0.15868843,0.16533566,0.1891203,-0.24132636,0.19219339,0.22516632,-0.542297,-0.051055755,-0.09015971,0.21142092,-0.50015175,-0.7984824,0.5019532,0.7550787,-0.21314247,-0.6587099,-0.55401266,0.17307301,0.34655342,0.033519853,0.3062525,-0.5263152,-0.4249125,-0.19331229,-0.20764287,-0.06322106,0.06061835,-0.30961266,-0.40028432,-0.06671235,-0.27924794,0.4203405,0.20631267,0.22445518,-0.3438812,0.32048878,0.7215673,-0.26690432,0.04636943,-0.2958783,0.03220955,-0.22038953,-0.0756259,-0.25817353
score,-0.41179982,0.07994386,-0.105219424,-0.45259964,-0.099886395,0.200856,-0.13041092,0.432817,0.44372,-0.31391403,-0.30413538,0.13708939,-0.2483736,0.58792454,-0.1746346,-0.017109254,0.14760943,0.8931646,0.45052692,0.038169384,-0.2655921,-0.39608687,-0.30357116,0.2086272,0.42592517,0.70746565,-0.4554715,0.53153265,-0.140156,0.046684038,-0.33257708,-0.09805454,0.20720658,0.3095156,0.018851703,0.58214676,0.06195262,-0.16097078,-0.46577147,0.6240187,0.1275674,0.6798665,0.38013625,0.039400302,-0.050423283,-0.02777371,-0.45363885,0.29219437,0.5891216,-0.5583335,0.5167947,-0.47741953,-0.2039431,-0.3545128,0.20952669,-0.5145212,0.34004623,-0.2781758,0.5447796,0.12995996,0.32476082,0.43841442,-0.6183444,-0.039590895,-0.045090325,0.0012691455,-0.29216534,0.20509842,0.16209687,-0.11136405,0.28277403,-0.23909782,-0.4475118,0.49937862,0.3703394,-0.28992367,0.8925124,-0.37778786,-0.43234375,0.06544497,-0.41812107,0.6998644,0.12044504,-0.15168951,-0.29524547,0.23438741,-0.260997,-0.106030785,-0.024822287,0.1365382,-0.26110724,0.037303597,-0.009468477,-0.9026516,0.15073532,0.02598241,-0.273678,0.0039262553,0.38906708,0.3919179
thematic,-0.013516073,-0.027494771,0.6150848,0.1284218,-0.66441673,-0.044702414,-1.1926035,0.449633,0.1329224,-0.11169846,-0.44547364,0.18989582,0.3573078,-0.083189756,-0.2530941,-0.49848545,0.43952426,-0.27669913,-0.651256,-0.15589766,-0.46333712,0.09525734,0.539157,-0.14975941,0.059162468,-0.27187803,-0.09999114,-0.4465796,-0.005663756,-0.26550314,-0.035396643,0.07296118,-0.1524646,0.1407673,0.14772108,0.25187674,0.007880249,-0.27746552,0.0025316814,-0.033658646,0.4724745,0.31778398,0.3072024,-0.23332803,-1.0524087,0.60052997,-0.17160547,-0.28936383,0.4825228,0.41012797,-0.18155836,-0.11728895,0.40793526,-0.40539488,-0.03929106,0.023239208,-0.23645018,0.047890563,-0.72516584,0.36044645,-0.18449995,-0.48654428,-0.46078753,-0.72032297,-0.5053304,0.59972763,0.7029966,-0.2914503,-0.5636413,0.06743865,-0.13311651,-0.38067096,0.6387954,-0.47707585,0.65893376,0.09246432,0.30387962,-1.0299336,-0.4494162,-0.17615496,0.291909,0.72634226,0.3027015,0.35044107,-0.4671992,0.4199062,0.11607015,-0.6955993,-0.44305253,0.22580162,-0.73724633,0.12565692,0.55161995,-1.1454552,0.1933091,-0.045233976,-0.03647962,-0.36511448,0.12217437,-1.5018792
will,0.31742638,0.37108123,0.46104744,-0.20283766,0.5414784,-0.2312609,0.038272846,-0.1975653,-0.78805125,-0.41376498,0.054214984,0.49620795,-0.4237979,-0.42464903,0.700878,-0.6531437,-0.5155301,-0.097480856,0.25164023,0.030267956,-0.10274179,0.07520002,-0.35792267,0.28025895,0.77288574,-0.081226796,-0.9851979,0.16655943,0.29776737,-0.6431618,-0.04842637,0.013658401,0.6550297,0.26213542,-0.5397751,-0.59027934,0.37097594,-0.46008253,-0.33123207,-0.027805494,0.6340194,-0.21474692,0.9192876,0.5764016,-0.15284435,0.30817685,-0.26966256,0.29303557,0.63137317,-0.3394709,0.17555805,0.06848865,0.6855745,-0.78873736,1.0393558,0.12608278,-0.0810572,0.1794942,-0.5202465,0.41290307,-0.15724206,0.38102767,-0.5240841,0.13036694,0.94027734,0.41349953,0.27082077,0.032438762,-0.30952758,0.6802165,0.074355684,0.14440225,0.35260308,-0.44242007,0.5729224,-0.27781215,0.03195786,-0.61818844,-0.3472658,0.65006876,0.38808888,-0.5541297,-0.03669976,0.09040815,0.05084293,0.011275917,-0.70203865,-1.1824546,-0.18931304,0.29985213,-0.94359875,0.7976135,-0.41302937,0.56144553,0.1437734,-0.039942835,0.28400126,0.34198627,-0.1960549,0.2222948
visual,0.07339173,0.29915938,-0.23685142,0.034458302,-0.2204509,0.44612885,-0.25032267,0.87610036,-0.19171329,-1.1464946,-0.19928695,-0.09413623,0.02956651,1.2210894,-0.5032945,-0.30760962,-0.02090812,-0.47033125,0.035086542,-0.09013571,-0.30015364,0.958396,-0.16211529,0.7406157,0.35809836,-0.050424628,0.15383959,0.8046235,-0.5490434,0.04912879,-0.52007943,-0.42225632,-0.711268,-0.24558192,0.6309016,-0.15196899,0.102329835,0.44792426,-0.24967298,-0.0315047,-0.3897607,-0.33530217,0.5115245,0.28601372,-0.23698291,-0.051173076,-0.5168131,0.6149403,-0.283185,0.11869306,-0.64705145,-0.55737865,0.31627673,-0.2653441,0.21291074,0.5142544,-0.7806641,0.4009845,0.022708546,-0.18177691,0.33463982,-0.1262567,-0.29069582,0.018245533,0.20575534,0.7259327,0.12172935,-0.23957707,-0.46594515,0.2701999,0.44556642,-0.46630865,0.08560982,-0.3689974,0.71190244,0.18101284,0.64952564,-0.18548724,0.96821284,-0.3959475,0.029247897,-0.5975069,-0.62062985,0.9660612,0.019581528,0.36108696,0.1505388,0.13269214,-0.14431661,-0.14527541,0.30513206,0.0651167,-0.6391987,-0.6848893,-0.6622259,-0.096456386,0.19050208,-0.45725343,0.652581,-0.8483255
building,0.3633208,0.039081212,-0.41458505,-1.3492855,-0.24160208,0.1270712,-0.3303249,0.4573615,0.53595924,-0.045326058,-0.1090891,0.86687756,-0.44881573,0.024906117,0.30679238,0.45306,0.36717075,0.42925963,0.15689306,-0.04232062,-0.29857194,-0.58326507,0.04490348,0.6010044,-0.57994896,0.58806056,-0.750321,0.7421859,-0.43371907,-0.5371404,-0.27136672,0.15507536,-0.5230826,-0.3446451,0.3913515,0.38421246,0.3869117,-0.015972659,0.016712384,1.050854,0.2318994,0.13753381,0.49999347,0.30878863,-0.066303305,0.2798142,-0.28443903,0.09699586,0.021301579,-0.569374,0.39853144,-0.843773,-0.21436976,0.1974558,0.4620805,-0.59893864,0.59852064,0.25334644,0.36799598,0.13368149,0.35610223,0.5502609,-0.44206232,-0.13100295,0.13635209,0.16561604,-0.5244977,-0.8579395,-0.00027021917,0.5441799,0.36396444,-0.06461262,-0.30658752,0.11174615,0.3814237,-0.29918987,0.09058765,-0.47936168,-0.8144314,-0.5461397,-0.3709675,0.25983053,0.27705148,0.051347826,-0.10407169,0.2800954,0.048333794,0.07404436,-0.11823676,0.30117324,-0.38626614,0.47297063,0.49671382,-0.4673485,0.094424024,0.36209312,0.38834113,-0.23765919,-0.038655113,0.07834046
dialogue,-0.058245342,0.03219121,-0.6719681,-0.26378706,-0.19121268,-0.049097557,-0.12384337,0.19754767,0.65906036,-0.016550323,-0.2755116,0.2458405,-0.24961011,-0.15859094,0.36825424,-0.21229532,0.26476648,0.29952466,0.28848407,-0.13785204,-0.044329412,-0.118357636,-0.61265755,0.17488314,0.23707314,0.445175,-0.36882764,0.09549789,-0.5584918,-0.16667752,-0.34232312,0.17506535,-0.37887695,0.0689815,0.124680474,0.36689427,0.10692026,-0.49262372,-0.07166132,0.055836305,0.10789584,1.0135068,0.33648798,0.41670054,0.17236488,-0.019669503,-0.111033395,0.91008985,0.31458607,-0.11083074,0.69456327,-0.46508694,0.009919823,-0.07129169,-0.03074205,-0.33967793,-0.21885367,-0.096856594,0.2865682,0.16692863,0.2704902,0.40524578,0.15622517,0.11461778,0.47185758,-0.02427917,0.17049177,-0.7066618,-0.2739035,-0.15465316,0.1794243,-0.46867135,0.1844687,0.34943944,-0.2323856,0.12545402,0.66456205,-0.1115207,-0.15440667,0.4725338,-0.1428782,0.27332285,0.09352051,0.24046992,0.13643207,0.32474682,0.27498382,0.050596993,-0.39544982,0.47358245,-0.38198853,0.2180467,0.40775692,-0.8240093,0.26656616,-0.4077373,0.4098257,-0.18842198,0.2220737,0.308176
third,0.14994352,0.122420296,0.0910445,-0.18978791,-0.64101124,-0.22853911,-0.33294562,0.19762154,0.45120636,-0.22690259,0.11266089,0.13639867,-0.23063526,0.32289287,0.2083287,0.11889868,0.1923766,0.08220221,0.4672794,0.1365411,-0.13266735,0.055652376,0.27389434,0.69700927,0.8659146,1.1388413,0.04887607,0.20093367,-0.104147345,-0.11729542,-0.2584297,0.24655744,-0.003959292,0.48852602,-0.12930363,0.33105507,0.12504397,-0.14565396,-0.28833795,0.4016287,-0.01604774,0.6681499,0.59693927,0.42292628,0.124516144,0.45401525,-0.17785718,0.048992243,0.23491335,-0.66443497,0.56753665,-0.30023563,0.31284565,0.23441432,0.47531894,0.025760664,0.029761963,0.0054320395,0.5868829,0.18800952,0.46394396,0.41925335,-0.07062266,-0.09645724,-0.3851545,0.1501567,-0.57360816,-0.21602644,0.3519472,0.22920801,-0.43455967,-0.9267959,-0.5337187,0.21522957,-0.21762386,-0.28439447,0.7258536,0.035966232,-0.41336715,-0.27764025,-0.09016099,0.7477416,-0.109746836,0.099002585,-0.50617707,0.70408684,0.24107093,-0.42362007,0.1261423,0.28107908,-0.07025784,0.4662228,0.65410286,-0.5970414,-0.09360817,-0.20632794,0.18667543,0.2383853,-0.49528876,-0.068283044
characters,0.020848585,-0.20061578,-0.18141326,-0.08130139,-0.8388522,0.23828407,0.05906895,0.4127307,0.07833778,-0.20656896,-0.82996345,0.51455003,-0.11481671,-0.35668287,0.5719629,-0.29967692,0.28586906,0.4259082,0.15704188,-0.39685822,-0.5738055,-0.6780221,0.28118715,0.6724302,-0.31741738,1.28662,-0.3011617,0.17424269,-0.05778854,-0.68585736,0.056831434,0.11722436,-0.014055663,0.33140308,-0.1084709,0.5014648,-0.00871512,0.4828306,-0.3227074,0.3524496,0.5162026,0.64479554,0.03349811,0.52733076,0.59095514,0.02862253,-0.1845699,-0.6097829,0.8723995,-0.00027564232,0.07309832,-0.5531177,-0.3916168,0.07710948,0.2000692,0.18450102,-0.4888614,-0.3023303,0.8770787,-0.371995,0.2825521,-0.003298255,-0.23033004,0.5421198,0.0936851,-0.18128094,-0.16557772,-0.6404333,-0.9760718,0.29449195,0.30513188,0.35545212,-0.83671266,0.56871617,-1.0299044,0.42729947,0.036321472,0.08542709,-0.19027826,0.043206457,0.012644415,0.10932979,-0.44412437,0.2668911,0.17670117,0.50841635,-0.4210367,-0.0035257102,-0.28604898,-0.7379768,-1.3938576,0.4028804,-0.16118656,0.38911337,-0.36148006,-0.63029397,-0.12559654,-0.048247226,-0.24200906,-0.47536194
design,-0.10788897,0.883223,-0.09222544,0.08553343,-0.6011921,-0.14055304,-0.10769101,0.69153774,0.24342684,-0.14724927,-0.03686383,0.15831994,-0.066909924,0.5602798,-0.5176996,-0.3255562,0.05560308,0.2963451,-0.14781877,-0.4583878,0.0961061,0.12379633,0.8960814,0.054121066,-0.57707626,-0.31526893,-0.0735745,0.17271213,-0.6688742,-0.058245208,-0.42699245,-0.4207885,-0.047553353,0.41612172,0.46010026,-0.4392154,-0.12278645,-0.85752594,-0.24224056,0.03533194,0.51159966,-0.24850501,0.25391737,-0.0022786267,0.48356965,0.059327517,-0.48918617,0.25892043,0.07402189,-0.52557707,-0.6681223,-0.8634928,0.7946003,-0.1960833,-0.35050288,0.37776652,0.01814959,0.45911515,0.23956867,0.29003343,-0.5875054,0.31914383,-0.31061798,0.07742596,0.4128021,0.47802356,-0.13399422,-0.73499113,-0.50686693,0.0059536668,-0.5807547,-0.4693726,-0.107642055,0.48637816,0.4246196,-0.79583126,0.2605301,-0.32377934,-0.15422602,0.6618364,-0.19767715,-0.25342026,-0.023618538,0.32623154,-0.04181983,0.29326102,-0.6495068,-0.22911295,0.17331548,0.16179506,0.61689526,0.9209065,-0.29070702,-0.24317583,0.41911986,0.27705717,-0.0062855817,-0.13165344,0.47328368,-0.51172584
frame,0.36288428,-0.05925582,-0.8575734,0.035227597,-0.48319584,0.4558744,-0.063257575,0.11132759,-0.15303315,-0.11678413,-0.054825664,0.31302705,-0.2349289,0.85250026,-0.82148105,-0.043500878,0.116540365,-0.016327707,-0.101762205,0.44324026,0.333533,0.56588095,0.20376027,0.057106584,0.09209098,0.12684561,-0.10165023,0.11511557,-0.14396164,-0.6108972,0.010120389,-0.38256443,-0.7426917,0.16251549,-0.30078843,0.19637659,0.24090417,-0.7275007,-0.075570874,0.006233701,0.3084162,0.011623059,0.61279535,-0.29858983,-0.010443411,0.33521137,0.33483592,0.20823139,0.24477513,-0.32269588,-0.60854536,-0.879415,0.4657242,-0.2781621,0.11093462,0.58223695,0.45464453,0.5059271,-0.039810732,0.53586805,-0.1302663,0.095111474,0.103640586,0.14347906,-0.1462792,0.43805724,0.2155105,-0.1553798,0.16030025,-0.07328859,-0.045744173,0.06561599,0.5401672,-0.35031447,0.017942129,0.61554104,-0.11248749,-0.486828,0.1349734,0.324941,-0.67522013,-0.5616553,-0.33919066,0.16571043,-0.3339408,-0.6098844,0.401069,-0.45810494,-0.23427823,0.2257217,-0.18795717,1.1230808,-0.88115084,0.20408395,-0.008661364,-0.46397644,-0.22654109,0.23528607,-0.010147795,-0.09152055
editing,-0.01724896,-0.37822542,0.11601001,-0.369009,0.23034345,0.33910754,-0.34160253,0.45312202,-0.23420101,0.059114937,-0.3960222,0.47500983,0.21861066,0.8141332,-0.08931118,-0.17177084,0.68339854,0.114429526,0.14345017,0.20775507,0.043688264,0.06645439,-0.13015683,-0.2010423,-0.26252204,0.3027617,0.14386591,-0.18215302,0.07752933,-0.13277833,-0.5372718,0.43752903,-0.39354378,-0.067226894,0.13543297,0.4182076,0.5784073,0.32685068,-0.2575586,0.24155664,0.36304379,0.80112076,-0.33528495,0.2626423,-0.18896013,0.24711074,-0.07903653,0.3582274,0.4710138,-0.27591434,0.40019858,-0.5462998,-0.020117015,-0.21631145,0.33203697,-0.06810584,-0.23951526,0.08792259,0.16376929,0.089266114,0.30180976,0.29776585,-0.34495375,0.076602444,0.30837733,0.5099611,-0.3932238,-0.18444395,0.14586686,0.3583083,-0.61390644,-0.2966986,0.0038602166,-0.10290579,-0.2801258,-0.10927456,0.15038936,-0.3451336,-0.06457256,0.23127295,-0.11144182,0.10493031,-0.08624445,-0.15289532,-0.33847222,-0.36519885,0.5769679,0.25723097,-0.2200683,0.5740096,-0.57430696,0.3590884,0.084716454,-0.5198899,-0.17495468,-0.45057648,-0.17347509,0.03927036,-0.08252173,0.14535107
production,-0.34486127,0.9468234,0.6519496,-0.22875711,-0.17473446,0.104982324,-0.82118076,-0.116738535,0.24510217,-0.42832932,-0.23759982,0.2784116,0.62015235,0.14183067,-0.19678076,-0.4021048,0.58518124,-0.39836344,-0.07404887,-0.5729657,0.07157219,-0.7445983,0.7743237,-0.0022821792,-0.15928917,-0.1883854,-0.8313837,-0.2869382,-0.22604717,-0.17888898,-0.63564426,0.55199784,0.1591649,-0.12507159,0.13061424,0.049266372,0.6102385,-0.18784541,0.27134347,0.28187665,0.20817167,0.38342702,0.22981277,-0.34038213,-0.04986006,0.40036917,0.14080535,0.033767264,0.23771521,-0.47793826,-0.16578515,0.070758075,0.8688867,-0.29378363,-0.045964383,0.21080317,-0.32102075,0.4924453,-0.15876195,0.31168023,-0.18485537,0.19051498,-0.7301232,0.019224916,-0.23233962,0.62420136,0.19540136,-0.26732394,0.20913747,0.15851453,-0.14955324,-0.18967389,0.12781161,-0.25130108,0.31593248,-0.08293302,0.29577076,-0.12944563,0.02871946,-0.39722094,-0.23832753,0.11024629,0.050088447,-0.1866574,0.22940663,0.1007995,-0.005549298,-0.09165753,-0.25587577,0.5185402,-0.47548538,0.13447094,-0.18855438,-0.7490588,0.3319656,-0.5766776,0.54707444,0.27521524,-0.2181964,0.20955448
contemporary,0.23834784,0.24815382,-0.9114796,0.16830114,-0.2518983,0.76514935,0.36542538,0.111166395,-0.12145589,-0.35644937,-0.878438,0.3943514,-0.55388665,0.7572008,-0.48294774,0.74283314,-0.037369356,-0.9239498,-0.4590919,-0.6506804,0.1740155,0.99482244,-0.5570332,0.7351006,-0.09996174,0.29262874,-0.73635185,0.3548305,-0.16761279,-0.8711575,-0.63856703,0.09504557,-0.1975138,0.4926221,0.67127544,0.15633652,0.2403288,-0.07931205,0.8124289,0.1688664,0.073930494,0.0033952554,0.27667418,0.09329415,0.2264045,-0.61140907,-0.29321328,0.19237725,0.2673912,0.14420198,0.39966047,-0.12864731,-0.2307819,0.21972546,0.3916824,0.8872642,-0.52432954,0.9231692,0.105648585,-0.43907887,-0.10154256,-0.027509421,-0.17905451,-0.0237041,-0.6493066,-0.16251725,-0.15194994,0.22068565,-0.023381306,0.20214975,-0.7728505,0.3913861,0.15201642,-0.95701313,0.5110909,1.2094183,0.46930894,-0.4837517,0.11358865,0.05300933,-0.39182916,-0.7772348,-0.66355354,0.2561914,-1.0109297,0.14574572,-0.3224291,-0.09467623,-0.0708897,-0.30020997,0.39760035,0.2869681,0.0058338833,-0.37152606,0.35707343,0.13674866,-0.8164704,-0.56311214,-0.13904023,-0.042762935
under,0.6439074,-0.065566055,-0.20656653,0.3314283,-0.25884175,0.22561236,0.3410528,0.041097015,-0.06445226,0.5479497,-0.44754058,1.1158168,0.054338258,0.2662185,-0.22549717,-0.21858707,0.2989834,-0.24161883,-0.7367863,0.20714198,-0.49920642,0.28053313,0.70989484,1.1819416,-0.21995562,0.31358966,0.15961668,0.052715823,0.28302246,0.07459156,-0.28502038,0.41742918,0.48161587,0.07877001,-0.27869895,0.37735003,0.76178265,0.61700594,-0.42706218,-0.031732477,-0.5155409,0.73486483,0.4154122,0.44005707,-0.24327746,0.14752501,0.26883098,0.37093207,0.5358995,-0.2969806,-0.7222158,-0.540176,-0.4194315,0.6328941,0.56725913,-0.41538385,-0.57226884,0.25625655,-0.0026360822,-0.057938837,-0.44044957,0.68317574,-0.08982355,-0.0047291014,0.07399031,0.56386095,-0.57491446,-0.6212502,0.05064231,-0.1499733,0.080398,-0.2539203,0.015526244,-0.017661797,-0.7489797,-0.28566793,0.60504305,0.69282395,0.40119922,-1.0396175,0.7488311,0.05082727,0.0318569,0.47942474,-0.45976537,1.0916322,-0.15631315,-0.40833858,0.11280291,0.30289918,-0.22980167,1.2833847,0.3679352,-0.7040762,-0.1474191,-0.93441445,-0.21374911,1.1788971,-0.61580604,-0.27698475
was,0.6762383,-0.1883714,0.03328612,0.16305713,0.01874497,0.36665696,-0.25188822,0.96148366,-0.28204218,0.60622436,-0.72349995,-0.96198606,0.5997539,0.06867006,0.3045641,0.47559667,0.24421705,-0.37735364,0.17478216,-0.38913894,-1.188696,0.43416464,-0.5165924,0.99980915,-0.032111157,0.2713459,-0.16241345,-0.405786,0.2541136,0.15375887,-0.202454,0.58683676,0.92175055,0.90668017,-0.3211639,-0.12975416,0.05002678,-0.042947866,0.49985227,1.6889294,0.69965965,0.6319001,0.8869892,-0.8209497,-0.47373655,0.5605815,-0.6793296,0.19770771,0.24551873,-0.2392175,-0.15468912,-1.1261955,0.35160378,-0.92965007,-0.033789564,0.5373359,0.14378843,-0.34935814,-0.6484803,0.6844705,-0.021310497,-0.5900063,0.4768095,-0.27741906,-0.077879466,1.0064467,0.34408617,-1.2313743,-0.9868875,0.43692744,0.49135858,0.049191155,-0.31228927,0.47808918,-0.47609586,-0.057511028,0.65947616,-0.07492068,0.83670986,0.27927428,0.1118125,-0.40106142,0.74181354,-0.27744716,0.34579402,0.40680048,-0.36994046,-0.11511668,0.19324921,0.005418086,-0.08179572,-0.094192885,-0.5112091,-0.6194861,-0.11959853,-0.5190418,0.16404049,-0.00083723455,0.057993796,-0.32529575
two,0.11898939,0.32384738,0.7541498,-0.23594472,-0.6818842,-0.22865033,-0.07048237,0.50271475,0.07354916,0.21318504,-0.20068449,0.081585556,-0.6813558,-0.0067519587,-0.69355977,0.76127386,-0.36747676,-0.13064644,0.2946207,-0.563769,-0.07348484,0.3479509,0.024287464,-0.036433727,1.2323678,-0.21335079,0.15580018,0.44016662,0.14395507,-1.001589,-0.06705975,-0.038561728,-0.044329338,-0.024953773,-0.26860362,0.20871311,1.8140109,-0.15662608,-1.1911473,0.26255894,0.78463435,0.9287611,0.10224125,0.9848834,1.0635953,0.29450324,0.08328228,-0.32946187,1.6670251,-0.19045375,0.38733155,-1.6356826,0.08061406,0.11327008,0.71447814,0.41849497,-0.29182845,-0.23033363,0.35792047,0.4568081,0.18246801,0.15922903,-0.6261542,-0.19482692,-0.05534775,0.73148423,0.21663162,-1.4000617,-0.04287752,0.4367588,-0.32495996,-0.1786991,-0.12651598,0.33385545,1.1371253,0.41196275,0.46048173,0.28783688,0.6892075,-0.5189028,-0.22154239,-0.7133002,0.44768563,0.78395134,-0.14991795,-0.13262117,-0.7265716,-0.78605425,0.18260358,0.84758973,-0.12736712,-0.46472818,-0.10074835,-0.2951205,0.66822517,-0.28943744,0.16697946,-0.6845865,0.23287974,-0.4942678
never,0.4461993,0.5619926,0.06850144,-0.14990562,-0.32733774,0.40490663,-0.57552403,1.1748086,0.20017865,0.18711081,-0.8850741,-0.013494036,0.65591305,-0.055325054,-0.60008067,0.31562987,-0.83520347,0.10401823,-0.044202738,0.90112716,0.5819522,0.009559265,-1.0844026,0.30790165,0.087341696,-0.021336535,-0.17128208,0.19756201,0.066221684,0.024612498,-0.09760632,0.5644059,-0.1675201,0.23022147,-0.75343627,-0.08980431,0.36443928,-0.2752761,-0.20867895,-0.30226368,0.58251405,-0.053982526,0.22480634,-0.005022815,0.35681042,0.08484273,-0.6650948,-0.20243733,0.37245798,-0.0014528461,0.502445,-0.51313347,0.022615645,-0.09946099,0.5336192,0.05696645,0.00057916186,0.08669781,-0.1747549,0.5586049,-0.20875113,-0.24888276,-0.23591587,0.53778034,0.19651769,-0.18328117,0.70518637,-0.17178057,0.010347051,-0.10609305,-0.094162226,-0.7336912,-0.437749,-0.8234982,0.4813483,-0.6731064,0.43950582,0.035182286,0.44676661,-0.091617145,0.6801047,-0.5197705,0.060645904,0.2559333,-0.057834655,0.12581025,-0.18830977,-0.14000697,-1.4307711,-0.031638935,-0.59011817,0.7283106,-1.2247511,0.43055475,0.83080804,0.36770844,0.3005516,-0.18349151,-0.21484803,-0.5376183
hours,0.06589782,0.12251081,0.79210645,-0.010952683,-0.3017253,0.099083096,-0.4527912,0.29310912,0.62451816,0.040085793,-0.123074934,-0.046111483,-0.92650044,-0.3000781,-0.58690083,0.6438122,-0.64820623,-0.10341876,-0.49947637,-0.67977685,-0.15613452,0.87460804,0.015246561,0.60952204,0.018081862,-0.037788194,-0.22173975,0.24415164,-0.15642476,-1.1339803,-0.16196245,0.8417421,0.32484052,-0.120079465,-0.5059265,-0.059461445,1.6344609,-0.02487726,-0.55926687,0.30602342,0.49552506,1.2093399,-0.2259468,0.82529396,0.29015386,0.13550381,0.14483123,-0.099431954,2.156929,-0.10554155,0.23438579,-1.4189874,0.6213678,0.29161575,0.9079076,-0.29224792,0.09886898,0.21380712,0.38608024,0.31463173,0.03664094,0.17667185,-0.78745997,0.2491407,-0.032655008,1.0703216,-0.51993746,-0.7227863,-0.33045927,0.23036876,-0.45772833,0.51512635,-0.1396453,0.42124087,1.1051781,-0.21292156,0.75440854,-0.5463943,1.3241957,-0.5411077,-0.07677086,-0.99782974,0.22183822,0.8361423,-0.45137006,-0.2712859,-1.0725526,-0.7242257,0.36882904,0.056257363,-0.17808497,0.3404264,-0.09524901,0.025418056,0.42282015,-0.20537655,0.5995974,-0.4371849,0.20932065,-0.4748991
through,0.5885569,0.3878049,-0.6400612,0.9593302,-1.3205246,0.3322974,0.08772433,0.4329521,-0.067607716,0.5083203,-0.9451305,0.4899606,0.003211347,0.6361108,-0.6723235,-0.14387208,0.01210543,0.13354892,-0.14982341,-0.25889713,-0.19116622,-0.24262731,0.020404194,0.46086344,0.337332,-0.650538,-0.22568733,0.33720773,0.48100492,-0.31533837,0.07365833,0.30437195,0.68256974,0.14537369,-0.49208453,-0.53464985,-0.0014402133,0.108847804,0.41769376,0.11872846,0.15082504,0.0028944702,-0.53561777,-0.21308517,-0.9003641,0.5611631,-0.3724907,-0.3874466,-0.22724591,-0.60976887,-0.41205442,-1.1858245,-0.30503845,-0.30400786,0.4463599,0.1567077,-0.5878252,-0.386208,0.78814787,-0.04998862,0.11099404,-0.19219847,-0.019951321,-0.122142956,0.3153491,0.903867,0.36286405,0.18884024,-0.34709948,-0.72675645,-0.6031913,-0.3824308,0.39448035,-0.24266684,-0.076070346,-0.40955573,0.7338908,0.0893659,-0.22180273,-0.3092032,-0.28868765,0.17408556,0.9918487,0.7996717,0.9707834,0.23744696,-0.04460042,-0.30945057,-0.24113718,0.11211749,-0.6879234,0.13106568,0.3230266,0.2578195,-0.30549222,-0.77788204,-0.39424622,-0.39081514,-0.41557112,0.5563037
original,0.38115478,-0.5683766,0.3830901,-0.19313633,0.27103734,0.8560317,1.192208,-0.3568267,-0.819168,0.21771076,-0.48358333,-0.055359885,-0.090604916,0.097227685,-0.014200433,-0.5777952,0.7708124,0.4541146,-0.22400862,-0.4670258,-0.124375604,-0.61008304,-0.028598856,0.11069306,0.1091243,-0.2711222,-0.44097254,-0.7007229,-0.4010251,0.17287192,0.149021,0.3731338,0.13443264,0.29114422,-0.17912039,-0.40736225,0.5044275,-0.13720801,0.91758883,0.116941966,0.53238976,0.47479534,0.80577636,-0.6517583,-0.674783,0.098010376,-0.07634517,-0.4335848,-0.4420648,-0.09387922,-0.03875431,-0.98254573,-0.16840552,-0.33543807,0.5622471,-0.23578599,-0.76817966,-0.8494293,0.1376757,0.37905008,-0.20119013,-0.038920626,-0.5881396,1.1642659,-0.29444793,0.67219657,-0.3403398,-0.56478965,-0.184141,-0.16597204,-0.036506817,-0.15775494,0.46683586,-0.34222192,-0.28081068,-0.02684724,0.4870882,0.23334822,0.7559735,-0.4437583,-0.18309657,-0.26661044,0.17886265,0.21108967,-0.3971534,0.43226016,-0.20086944,-1.080883,-0.7204277,0.12561098,-1.0238414,0.7599515,-0.07042203,-0.3588432,-0.1044287,-0.008138079,-0.13690189,-0.4893915,-0.03593004,-0.33378103
make,0.37119097,-0.6090968,-0.16944133,0.6525007,-0.40725398,0.39155915,-0.24295506,-0.18462388,-0.2649828,-0.46063456,-0.5164518,0.5612356,-0.7220423,-0.34953737,-0.1827147,0.7606214,-0.38746342,-0.16559196,0.79328465,-0.016256861,-0.9897621,-0.6213285,-0.84947515,0.42943358,0.18607408,0.21343695,-0.29460958,0.7250991,0.32962826,-0.63699245,-0.26430973,-0.3459605,0.47082165,0.48620173,0.75512516,0.17049427,0.10919992,1.0681419,0.17916045,-0.1268281,-0.10968356,0.12530953,0.6256341,0.27968335,0.057392865,0.24397832,-0.7045656,0.2324072,0.124163024,-0.42331573,0.44361892,-0.015619045,-0.14781985,-0.0034385363,-0.19351429,0.1473211,-0.28775173,0.15071107,0.22990604,0.06333759,0.15819222,0.15604667,-0.791615,0.43504563,-0.48765385,-0.22833869,0.037627198,-0.89078426,-0.6120823,0.1921879,0.0656409,-0.43881744,-0.063418046,0.24401812,-0.5629205,0.8241792,0.64475405,-0.31717208,0.37375945,-0.4124996,-0.1534891,-0.5635115,-0.2256045,0.20021953,0.23181593,-0.23965876,0.2437949,0.44960314,0.5369361,0.0070237676,-0.44154537,0.7254113,-0.9608082,-0.3239874,0.37903512,-1.3093812,0.32428688,0.19602026,0.33934405,-0.66929734
human,-0.46852955,-0.0717831,-0.5423252,0.5900821,-0.1206857,0.53524697,0.20440933,0.31187487,0.5901014,-0.5202557,-0.2439603,0.13346875,-1.4303322,0.15105253,0.3073734,0.13601725,-0.35170045,-0.61462677,-0.18841141,-0.05969825,-0.34354848,0.5755367,-0.0723111,0.319507,0.7915187,-0.053287245,-0.11462458,-0.78462344,-0.18374027,-0.38800064,0.040131886,-0.5449863,0.28140154,0.41146475,0.30119565,0.114631675,0.4076429,-0.2211322,0.5284343,-0.58178353,-0.47361353,-0.11405304,1.0763335,-0.4964468,-0.20459315,0.2781325,-0.07458127,0.23705941,0.24992017,0.20146106,-0.9889066,-1.5133281,-0.5530985,-0.39958936,-0.22323197,-0.54952824,0.62272054,0.21535544,-0.4920339,0.46288612,-0.489849,0.5318718,-0.40060636,0.9014183,0.14847833,0.34008592,0.18437631,0.11270061,-0.7201962,0.49988237,-0.7785938,0.04795036,0.013210481,-0.28710648,0.5117883,0.34912017,0.16711204,-0.55407774,1.2170429,0.10655251,0.20087713,0.16346458,-0.15609317,-0.020797499,1.0361774,-0.36853358,0.5552836,-0.10417003,-0.7485376,-0.75867856,-0.35430452,0.46989143,0.3205069,-0.9549064,0.25226858,-0.45646188,0.25075486,-0.11761751,-0.20455344,0.19379814
about,0.1890477,-0.13163507,0.79895216,-0.98545504,0.122125216,0.44609857,-0.17440327,-0.5120651,0.15456878,-0.39633542,-1.541997,0.8603414,-0.9417418,0.8670479,-0.17589612,-0.6167483,-0.17827253,-0.61370796,-0.49041972,0.68711174,-0.7305297,0.4662786,-0.0024115234,1.0845661,-0.17899391,0.9587807,-0.3039333,0.13370046,-0.45828184,0.045691285,0.64251167,0.03866009,0.19036575,-0.39696372,-0.93633443,-0.28711236,0.8212446,-0.957411,0.31867102,-0.067619756,0.8544873,0.20609608,0.31759033,0.2816492,0.4862916,-0.2233289,-0.061359107,1.0512762,1.0592532,0.15663992,0.32928678,0.22325118,0.035235636,-1.0887666,0.9941711,-0.31609386,-0.609214,0.5419489,-0.63464415,0.6087425,0.73707837,-0.2645966,-0.6727189,0.04438761,0.8709997,-0.28669056,-0.1462552,0.067858085,-0.91795975,0.23939198,-0.59880626,-1.109324,-0.34077027,-0.2448813,0.80780226,-0.19384037,0.807557,0.06456635,-1.1979747,0.114753,-0.08488255,-0.4328313,-0.6390407,0.19686776,0.18032916,0.08511276,0.15027605,0.08425093,0.80595946,0.29628208,-0.6211267,0.8814592,0.47145256,-0.23533972,0.072555035,-1.0433099,-0.5810462,0.12870885,-0.52113795,0.7993005
performances,0.4257021,-0.15795222,0.0067867236,-0.347566,-1.2190293,-0.31419197,-0.1962192,-0.572707,0.010085543,-0.07959605,-0.90758306,0.40288436,0.051600296,0.4588506,0.322728,0.20398305,0.38342035,-0.07229335,0.46574053,-0.24285793,-1.2473558,-0.41243002,-1.1325854,0.5085034,-0.20807503,0.524794,-0.26186013,0.50869364,-0.5387378,-0.68294907,-0.4822862,-0.1407148,-0.3088892,0.4666708,0.15487418,0.27841803,-0.2653335,0.8188021,-0.020450588,-0.018808622,0.35067642,0.5131444,0.6009941,0.22548445,0.6090255,-0.34800255,-0.1321194,-0.6118527,0.55710995,-0.19688237,0.28970507,-0.51122123,0.11735514,0.33455542,0.07143983,0.2466195,-0.47681525,-0.3664604,0.23731604,0.013749084,0.04294877,0.3225106,0.20808896,-0.29243484,0.6910908,-0.20844574,-0.5980814,-0.7300189,-0.72287095,0.07230299,0.41033885,-0.14223826,-0.012366509,0.9321,-0.66278577,-0.22529012,0.49754915,-0.19978471,0.013182077,-0.1634265,0.51293766,-0.36381677,-0.32244736,0.50601125,0.11873009,0.09651698,0.08849859,-0.43796352,-0.19387536,-0.37654725,0.009043385,0.5444803,-0.12730795,-0.07858257,-0.50423783,-0.9065496,-0.0007239552,-0.04272437,0.21960106,-0.2099481
actively,-0.13377357,0.6680424,-0.6837161,-0.2515344,-0.25871062,0.9889512,0.42450804,-0.04461411,-0.061291702,-0.15515704,-0.2362662,0.15424214,1.0256793,0.70948917,0.079702735,-0.11671198,0.2460304,-0.5045156,-0.66579247,-0.16202293,-0.87059385,-0.1285156,-0.6349644,0.6351443,0.34897864,-0.5555975,0.18078564,-0.11942653,-0.55937666,0.13771455,-0.62842,0.08133455,0.6087029,-0.3622003,-0.23807675,-0.06267874,-0.16288194,0.16561857,0.12978628,-0.06878474,0.64858824,0.42360538,0.42923567,0.3097628,-0.3754964,-0.3408451,-0.10623044,-0.17446911,-0.5272621,-0.6465318,-0.14541948,-0.8834695,-0.2249151,-0.5028909,0.59057254,-0.085512355,-0.35804546,-0.73150504,0.17672762,0.1459241,-0.23582828,0.06874185,0.06663822,0.00382083,-0.15472011,-0.22850922,-0.75098187,-0.17902818,-0.17844105,0.122819334,-0.19017117,-0.31711048,-0.55125374,0.3698966,-0.46289235,0.14824405,0.21043555,-1.0537441,0.2720997,-0.31654543,0.3164921,-0.5099922,0.30733192,0.82913244,0.7337318,0.18059659,-0.37181157,-0.6545797,0.13262309,-0.3205715,-0.64575523,0.5839688,-0.45956224,0.009318234,-0.06639885,-0.6072771,-0.15306906,0.06212257,-0.12702017,-0.87615204
cannot,0.3822248,-0.29500583,-0.35498014,-0.11684223,-0.17532979,1.0278981,0.07521239,0.2798304,0.6110553,0.18269368,-0.8791439,0.2257394,0.92181736,-0.012842799,-0.49062204,-0.47505277,-0.78227973,-0.15674086,-0.45418867,-0.6741377,-0.025016006,0.3454623,-0.14234397,0.8891351,0.38766402,0.3034697,-0.5896895,-0.073176414,-0.24417421,-0.4070249,-0.042954586,0.37364992,0.40585676,-0.29349503,0.42346424,-0.54915214,0.021970095,0.8193722,0.519166,0.3902667,1.1281961,0.811386,0.72678834,-0.08697565,0.008213776,1.4745218,0.41855004,-0.22208801,0.9621766,0.06507675,0.09900178,0.30455366,-0.40828207,-0.24143384,0.94229555,-0.0061859507,-0.263555,-0.25315955,0.21949589,0.053070832,0.19032386,-0.011375683,-1.3060309,-0.24684694,0.0072267544,-0.08360342,0.2086054,-0.99757457,-0.48722517,-0.18535852,0.5947773,0.1962099,-0.6285671,-0.025777629,-0.25547934,0.06767274,0.048612818,0.11743063,1.5903306,-0.5962063,-0.19472486,-0.4988928,0.18339,-0.052842572,-0.04458063,-0.055610128,0.40651137,-1.115534,1.0352081,-0.7996248,-0.026596278,0.32616687,0.193295,0.028216172,-0.100549884,-0.69380987,-0.024546646,0.7410858,0.09478238,0.37189043
extraordinary,0.115542255,0.38051906,-0.71849245,0.79028815,0.0249606,0.42578298,-0.14454527,1.1992502,-0.29756832,0.24899085,-0.47713348,0.23987329,-0.7240374,0.1988266,-0.40375215,0.19299752,-0.14970836,-0.6557673,0.11836009,0.62654305,0.4603213,0.01604713,-0.48069692,0.15950224,0.119022496,0.057889275,-0.71099806,-0.16290368,-0.12327397,0.045094755,-0.43114468,-0.5280106,-0.24860854,0.17507835,-0.5095582,-0.54531413,-0.12789774,-0.61783826,-0.18745513,0.40444112,-0.034970317,-0.5420209,0.20143381,-0.21713026,0.19663107,-0.37685508,-0.25101262,-0.010373799,0.56902725,-0.24464491,-0.3134079,-0.6814721,0.14788495,0.19846444,0.027383741,-0.067164175,0.27478036,0.9027081,-0.13039201,0.7918613,-0.0005463577,0.024019763,0.17338239,-0.14204897,0.016113091,0.21164805,0.25115618,-0.3108994,0.30466762,-0.19596374,0.12565382,-0.62228465,-0.6711496,0.34369156,0.49878994,-0.2799472,-0.1759545,0.112584434,-0.41322684,0.14695793,-0.3109936,-0.5284954,-0.6895102,0.19701338,-0.727627,-0.028513847,-0.4496119,-0.7010029,-0.43513426,0.34970522,-0.60699886,0.3445471,-0.075164855,0.2764433,0.25106263,-0.93525666,0.68305385,-0.9903332,0.42815277,-0.48146024
believe,0.29861706,0.09337625,0.49983165,0.13299096,-0.30768594,-0.14555252,-0.29024807,0.5823375,-0.5973954,0.5311551,-1.4061891,0.5380125,0.66058683,0.07746855,0.043138657,-0.48504242,-0.215998,0.02687629,0.56477594,0.38575307,-0.22638036,0.8854556,0.41562188,0.83369774,1.293993,-0.2851115,-0.9537789,0.08260758,0.7372175,-0.081889406,-0.022465562,0.6248247,0.65926754,-0.094108224,0.5711786,-0.3987639,-0.18737265,-0.033117443,1.0211439,0.8106765,0.94579625,-0.48154324,0.09201837,-0.61001927,-0.41030505,0.7090849,0.2505172,0.18484856,-0.3998253,-0.4843684,0.7560681,-0.57757556,0.085991964,-1.1485932,1.0847669,0.6873547,-0.5622225,-0.07804175,0.5295288,0.9354298,-0.44432732,0.3863972,0.24764447,0.07235019,0.19630785,0.6646342,0.1264891,-0.6224508,-1.166615,0.23318173,0.5095206,0.41358802,-0.3050023,1.2404761,-0.23836134,-0.05493526,0.27646604,-0.020178918,0.89303976,-0.008575187,-0.2734124,-0.28838074,-0.14644027,-0.07565307,-0.3931935,-0.285103,-0.25392604,-0.3365277,-0.15226704,-0.6174323,-0.7950079,0.19189131,-0.33927,-0.86830336,0.5324498,-0.25534457,1.1974134,0.09256926,-0.03541155,0.6294589
year,-0.65212744,-0.014653843,0.16471872,-0.06725783,0.07791367,0.82117176,-0.039916415,-0.3186658,-0.40088767,-0.012734891,-0.5385935,-0.31395298,-0.41855422,0.49179608,-0.2236937,-0.22569512,0.7807053,-0.3952775,0.39991054,0.7955014,0.339245,0.23397669,-0.13137874,0.8421199,0.7629619,-0.19344123,-0.25379872,1.1098723,-0.8403339,-0.54473966,0.18654738,0.032330222,0.17391072,-0.10878266,0.44958523,0.28512755,0.5517563,-0.23944542,0.48458976,-0.3377651,0.117837824,0.90959877,0.6274044,-0.028522415,0.4269518,0.20879501,0.40069202,0.7264319,0.8752898,-0.7762077,0.11084623,-0.7801118,-0.6196669,-0.5468377,0.41109324,0.08998416,-0.29977986,0.6892438,-0.085258566,0.35233834,1.152452,-0.54729086,0.013101974,-0.34176242,-0.2793924,-0.35475272,-0.30507785,-0.5043869,0.2285066,0.9765304,-0.6106078,-0.3842558,0.103117995,-0.5059849,0.7312474,-0.7407089,0.8675448,0.44557303,-0.5201057,0.14192946,0.4069411,0.056476653,-0.24118373,0.10301642,0.36142078,-0.009473127,-1.4052674,-0.8135245,0.29241133,-0.04172326,-0.57435614,0.7529739,0.92876744,-0.7769341,0.6845613,0.070402995,-0.34140682,0.40961486,-0.4502333,0.0870284
